#############################################################################
## Copyright (c) 1996, Carnegie Mellon University, Cambridge University,
## Ronald Rosenfeld and Philip Clarkson
## Version 3, Copyright (c) 2006, Carnegie Mellon University 
## Contributors includes Wen Xu, Ananlada Chotimongkol, 
## David Huggins-Daines, Arthur Chan and Alan Black 
#############################################################################
=============================================================================
===============  This file was produced by the CMU-Cambridge  ===============
===============     Statistical Language Modeling Toolkit     ===============
=============================================================================
This is a 3-gram language model, based on a vocabulary of 7719 words,
  which begins "özür", "desteğimizin", "şunu"...
This is a CLOSED-vocabulary model
  (OOVs eliminated from training data and are forbidden in test data)
Good-Turing discounting was applied.
1-gram frequency of frequency : 5049 
2-gram frequency of frequency : 16396 1438 397 195 99 56 33 
3-gram frequency of frequency : 20862 972 272 132 65 29 26 
1-gram discounting ratios : 0.00 
2-gram discounting ratios : 0.16 0.41 0.65 0.63 0.67 0.68 
3-gram discounting ratios : 0.09 0.41 0.64 0.61 0.53 
This file is in the ARPA-standard format introduced by Doug Paul.

p(wd3|wd1,wd2)= if(trigram exists)           p_3(wd1,wd2,wd3)
                else if(bigram w1,w2 exists) bo_wt_2(w1,w2)*p(wd3|wd2)
                else                         p(wd3|w2)

p(wd2|wd1)= if(bigram exists) p_2(wd1,wd2)
            else              bo_wt_1(wd1)*p_1(wd2)

All probs and back-off weights (bo_wt) are given in log10 form.

Data formats:

Beginning of data mark: \data\
ngram 1=nr            # number of 1-grams
ngram 2=nr            # number of 2-grams
ngram 3=nr            # number of 3-grams

\1-grams:
p_1     wd_1 bo_wt_1
\2-grams:
p_2     wd_1 wd_2 bo_wt_2
\3-grams:
p_3     wd_1 wd_2 wd_3 

end of data mark: \end\

\data\
ngram 1=7719
ngram 2=18783
ngram 3=22464

\1-grams:
-3.2909 özür	-0.1253
-99.9990 desteğimizin	-0.0776
-3.2184 şunu	-0.1078
-99.9990 d	-0.0465
-99.9990 e	-0.0774
-2.4238 o	-0.2634
-99.9990 s	-0.0465
-99.9990 tarihçilere	-0.0776
-99.9990 sunmayan	-0.0776
-3.8552 meşrulaştıran	-0.0648
-99.9990 anadoluda	-0.0649
-2.5764 kadar	-0.0821
-99.9990 saymayın	-0.0665
-99.9990 hanımefendi	-0.0764
-99.9990 zafiyeti	-0.0775
-99.9990 kadim	-0.0776
-99.9990 kadir	-0.0776
-99.9990 çizerek	-0.0774
-99.9990 kazanmaktadır	-0.0465
-3.7303 anayasa	-0.0761
-99.9990 kadri	-0.0665
-99.9990 gıda	-0.0772
-99.9990 çalışabilecekleri	-0.0649
-4.0313 türkistan	-0.0665
-99.9990 tahammül	-0.0772
-3.8552 alınarak	-0.0750
-99.9990 isek	-0.0665
-4.0313 bilirim	-0.0457
-3.8552 tamamlayayım	-0.1397
-3.2531 hayatını	-0.1976
-4.0313 isim	-0.0774
-3.4872 isme	-0.1547
-3.8552 ismi	-0.0755
-3.8552 huzur	-0.4448
-99.9990 otursun	-0.0740
-99.9990 iste	-0.0465
-99.9990 kanalizasyon	-0.0776
-99.9990 anlatmayacağım	-0.0465
-99.9990 öğrencimiz	-0.0776
-99.9990 anlatmayacağız	-0.0465
-3.5542 açıklama	-0.0774
-99.9990 verdiğinizde	-0.0737
-99.9990 araştırın	-0.0465
-99.9990 araştırıp	-0.0771
-99.9990 havzasına	-0.0774
-4.0313 adaya	-0.0774
-4.0313 askerlerimize	-0.0736
-3.8552 bulunamamıştı	-0.4248
-99.9990 idarelerin	-0.0775
-4.0313 doğan	-0.0775
-99.9990 doğar	-0.0776
-3.8552 anlayışını	-0.0773
-99.9990 düzensiz	-0.0776
-4.0313 ihtiyacının	-0.0775
-99.9990 ab	-0.0775
-3.3323 ak	-1.0772
-3.2184 an	-0.7115
-99.9990 at	-0.0665
-4.0313 ay	-0.0767
-3.8552 az	-0.0755
-4.0313 benzeri	-0.2133
-99.9990 bi	-0.0776
-1.7019 bu	-0.1390
-2.0843 da	-0.0345
-2.0468 de	-0.0348
-99.9990 dr	-0.0465
-4.0313 taşeron	-0.0774
-99.9990 kilometre	-0.0776
-3.7303 el	-0.0775
-2.7760 en	-0.1840
-3.8552 ev	-0.0772
-3.6333 yapmıştır	-0.3167
-4.0313 ailesine	-0.0736
-4.0313 ha	-0.0773
-3.7303 il	-0.0774
-99.9990 in	-0.0776
-99.9990 ip	-0.0776
-99.9990 lideri	-0.0728
-3.8552 heyetinizi	-0.1593
-2.5841 ki	-0.0440
-3.3781 nezdinde	-0.1047
-3.0770 mi	-0.4187
-3.4872 mu	-0.1697
-2.5764 ne	-0.1551
-3.2909 doğru	-0.0581
-99.9990 ol	-0.0776
-2.9706 on	-0.2382
-3.8552 oy	-0.0774
-3.8552 iktidarın	-0.0775
-3.4872 su	-0.1318
-3.8552 ta	-0.0760
-4.0313 tl	-0.0775
-99.9990 vb	-0.0776
-1.5967 ve	-0.0799
-3.3781 yandan	-0.0721
-99.9990 yeşil	-0.0773
-3.8552 tırlar	-0.0773
-3.0313 ya	-0.3606
-99.9990 yi	-0.0764
-99.9990 isyanından	-0.0772
-3.1282 çerçevede	-0.1285
-99.9990 oluşmasını	-0.0773
-99.9990 parlamentodan	-0.0776
-99.9990 tarihçilerin	-0.0776
-99.9990 tepkiyle	-0.0775
-99.9990 kalkavan	-0.0756
-99.9990 ayırımcılığa	-0.0776
-99.9990 açılış	-0.0776
-99.9990 öngörü	-0.0776
-99.9990 atınız	-0.0776
-3.6333 analar	-0.3489
-99.9990 eksiklik	-0.0774
-99.9990 müstafi	-0.0775
-99.9990 karşısındaki	-0.0776
-99.9990 özgün	-0.0649
-4.0313 özgür	-0.0774
-99.9990 satmayı	-0.0776
-99.9990 amirlerin	-0.0737
-3.4292 vereceğim	-0.8440
-99.9990 vereceğiz	-0.0775
-99.9990 azmış	-0.0465
-99.9990 farklılıkları	-0.0665
-3.1862 ülke	-0.0792
-99.9990 derlemecileri	-0.0776
-99.9990 samimiyetten	-0.0775
-4.0313 taşımaktadır	-0.1950
-99.9990 pakistan	-0.0774
-4.0313 ederken	-0.0736
-99.9990 manzara	-0.0773
-99.9990 toplumumuz	-0.0756
-99.9990 hız	-0.0776
-99.9990 buluruz	-0.0665
-3.3781 bakanlar	-1.0310
-99.9990 mahkemeler	-0.0776
-3.8552 verecek	-0.0465
-99.9990 birileri	-0.0765
-3.3781 nedenle	-0.0732
-99.9990 tekrarlıyoruz	-0.0776
-4.0313 bağımsız	-0.0628
-4.0313 hataya	-0.0764
-3.5542 ön	-0.2790
-3.7303 öz	-0.1443
-99.9990 olayıyla	-0.0774
-99.9990 girmesi	-0.0776
-99.9990 boşalan	-0.0772
-99.9990 olumsuzluklarla	-0.0776
-4.0313 sevgiyle	-0.0769
-99.9990 ümit	-0.0767
-99.9990 toplumunda	-0.0776
-99.9990 düşecek	-0.0760
-99.9990 mitinglerini	-0.0776
-99.9990 girmek	-0.0775
-3.6333 toplumunun	-0.2621
-99.9990 alevilere	-0.0764
-99.9990 havuzunun	-0.0774
-99.9990 birbirinin	-0.0776
-99.9990 müstafisiniz	-0.0765
-99.9990 temellerinin	-0.0776
-3.3323 durumunda	-0.2950
-99.9990 mezarlığına	-0.0775
-99.9990 operasyonda	-0.0775
-99.9990 avrupanın	-0.0776
-3.7303 işçi	-0.1445
-99.9990 operasyonla	-0.0775
-99.9990 nazara	-0.0776
-3.5542 milletvekiline	-0.0762
-99.9990 konjonktürde	-0.0772
-4.0313 operasyonun	-0.0648
-99.9990 birbirinden	-0.0776
-99.9990 olmasından	-0.0775
-99.9990 istenmektedir	-0.0465
-3.7303 ünal	-0.1438
-99.9990 katkıları	-0.0768
-3.3781 bulunuyorum	-0.6473
-99.9990 bulunuyoruz	-0.0465
-3.8552 yetkilileri	-0.0765
-99.9990 geçirmiştir	-0.0465
-99.9990 mektumluk	-0.0776
-99.9990 içerisine	-0.0775
-3.7303 bilgisine	-0.1454
-99.9990 girmiş	-0.0776
-3.8552 değeri	-0.0761
-2.9899 şu	-0.1694
-99.9990 tabularında	-0.0760
-4.0313 faaliyetlerine	-0.0658
-3.6333 adeta	-0.0727
-3.8552 meselenin	-0.0775
-3.8552 objektif	-0.1579
-99.9990 hükümetlerimiz	-0.0775
-99.9990 gönderilmektedir	-0.0465
-99.9990 kaide	-0.0775
-99.9990 toplanmıyor	-0.0776
-99.9990 fikirlerini	-0.0776
-99.9990 dönmesi	-0.0665
-99.9990 siyasetçilerimiz	-0.0776
-99.9990 ödemelerinde	-0.0776
-99.9990 fırlamak	-0.0776
-4.0313 caydırma	-0.0773
-99.9990 düzenlemelere	-0.0774
-99.9990 düzenlemeleri	-0.0775
-4.0313 özelliklerini	-0.0773
-4.0313 yönde	-0.0647
-99.9990 başlayacak	-0.0776
-3.4872 çatışma	-0.1557
-4.0313 silahsız	-0.0760
-99.9990 bahri	-0.0776
-4.0313 bahse	-0.2258
-3.6333 sahibi	-0.0760
-99.9990 geçirilen	-0.0773
-99.9990 tüzükte	-0.0776
-3.8552 partimizin	-0.0774
-3.8552 söylemek	-0.0760
-99.9990 öncülerinden	-0.0760
-3.3781 takip	-0.0765
-99.9990 belirterek	-0.0768
-99.9990 aradığımız	-0.0768
-99.9990 sebeplerden	-0.0775
-99.9990 hükümetlerinin	-0.0774
-99.9990 adamlardı	-0.0776
-99.9990 sekizlerin	-0.0776
-99.9990 torunlarının	-0.0776
-4.0313 gereğidir	-0.0461
-99.9990 olmamış	-0.0773
-99.9990 özelikle	-0.0776
-99.9990 geleceksin	-0.0772
-4.0313 dönüştürülmüştür	-0.1950
-2.8852 bölge	-0.1425
-99.9990 öyleyse	-0.0756
-4.0313 çocuğu	-0.0775
-99.9990 tartışmak	-0.0465
-99.9990 hükme	-0.0772
-4.0313 operasyonlarının	-0.0772
-99.9990 sağlanmaktadır	-0.0465
-3.5542 bilgilerinize	-0.1704
-99.9990 sağlığını	-0.0775
-99.9990 alevilerin	-0.0774
-99.9990 talan	-0.0775
-4.0313 gidecek	-0.0775
-99.9990 medeniyete	-0.0776
-3.2909 talep	-0.0628
-99.9990 söylenen	-0.0776
-99.9990 parkında	-0.0740
-4.0313 ayından	-0.2257
-99.9990 geçireyim	-0.0772
-3.7303 dışında	-0.0768
-99.9990 katkılarda	-0.0775
-3.2909 sunuyorum	-0.6475
-4.0313 müsaade	-0.0776
-99.9990 yaralanmış	-0.0773
-99.9990 şaatiye	-0.0776
-99.9990 yapıların	-0.0775
-3.8552 birleşiminde	-0.0767
-3.6333 katkılarla	-0.2635
-99.9990 erbapları	-0.0776
-99.9990 güvenerek	-0.0776
-99.9990 aşiretlerinin	-0.0775
-3.8552 birleşiminin	-0.0768
-3.1862 olmak	-0.7429
-3.5542 olmaz	-0.3458
-99.9990 kapatmayla	-0.0768
-99.9990 karakolunda	-0.0774
-99.9990 gelecektir	-0.0465
-99.9990 yanlı	-0.0649
-3.5542 uzatılmıştır	-0.3520
-99.9990 seküler	-0.0776
-99.9990 vekillerin	-0.0737
-99.9990 mussoliniden	-0.0776
-99.9990 edilmeyecek	-0.0764
-99.9990 karakolunun	-0.0740
-4.0313 izah	-0.0775
-99.9990 gezin	-0.0776
-99.9990 üstünün	-0.0776
-99.9990 yurttaşlarının	-0.0776
-4.0313 kalmamız	-0.2260
-4.0313 kanı	-0.0776
-3.8552 kürtlerden	-0.0733
-99.9990 sürdürülen	-0.0776
-3.4872 izin	-0.2018
-3.6333 biliyor	-0.2208
-3.7303 tamam	-0.2915
-99.9990 kuvvetlerine	-0.0776
-99.9990 kuvvetlerini	-0.0776
-3.4872 nokta	-0.1430
-4.0313 birlikleri	-0.0760
-4.0313 özgürlükler	-0.0665
-99.9990 kısmın	-0.0776
-3.7303 katılmak	-0.4305
-99.9990 tamir	-0.0776
-3.2909 kapsamında	-0.1609
-99.9990 otomobilin	-0.0737
-99.9990 hastaydı	-0.0465
-4.0313 kardeşlerimizin	-0.0774
-3.6333 milyonlarca	-0.1307
-99.9990 kültürümüzde	-0.0756
-99.9990 sataşmadır	-0.0649
-99.9990 kastı	-0.0776
-3.3781 kalan	-0.1051
-99.9990 hüküm	-0.0776
-99.9990 bırakıldı	-0.0465
-99.9990 sayılardan	-0.0776
-99.9990 türkmenlere	-0.0776
-99.9990 uyuşturucu	-0.0665
-99.9990 sivastan	-0.0776
-3.8552 sıkı	-0.0776
-99.9990 sunardı	-0.0765
-99.9990 kurumunda	-0.0772
-3.8552 geçişi	-0.0774
-3.7303 bakan	-0.0756
-99.9990 geleneklerinin	-0.0767
-99.9990 idareciler	-0.0665
-3.8552 yılının	-0.0770
-4.0313 grupları	-0.0761
-99.9990 çalıştılar	-0.0465
-99.9990 stoklarını	-0.0776
-4.0313 yönüyle	-0.0756
-99.9990 kalmamızın	-0.0773
-99.9990 korkmaz	-0.0746
-3.3323 tanal	-0.1130
-2.5542 yirmi	-0.3100
-99.9990 açan	-0.0649
-99.9990 saattir	-0.0776
-99.9990 kararlılıkla	-0.0775
-4.0313 milletine	-0.0776
-3.6333 miktarı	-0.3336
-99.9990 milletini	-0.0773
-99.9990 terörden	-0.0773
-99.9990 olacağına	-0.0776
-99.9990 dışındaki	-0.0775
-99.9990 karadan	-0.0776
-4.0313 izmir	-0.0770
-99.9990 enerji	-0.0776
-3.4872 yedinci	-0.2009
-99.9990 ağızla	-0.0772
-99.9990 yedinin	-0.0775
-99.9990 dışarıdan	-0.0773
-99.9990 yöresinin	-0.0776
-99.9990 zabıtlara	-0.0776
-99.9990 cevval	-0.0760
-4.0313 ordudan	-0.0688
-99.9990 bakanıma	-0.0740
-4.0313 etrafa	-0.2260
-3.8552 ülkemizde	-0.0752
-2.9706 ülkemizin	-0.0718
-99.9990 düşürülmüş	-0.0774
-4.0313 buldan	-0.0762
-99.9990 bellidir	-0.0465
-4.0313 kapı	-0.0775
-99.9990 gerilim	-0.0776
-99.9990 nakletme	-0.0775
-99.9990 gerilla	-0.0776
-99.9990 birbirinize	-0.0775
-99.9990 geliştirdiği	-0.0774
-3.8552 gökçeadada	-0.0769
-99.9990 bulduk	-0.0776
-99.9990 buldum	-0.0776
-3.4292 lübnanın	-0.0731
-3.3781 veriyorum	-0.6504
-99.9990 dinidir	-0.0465
-3.6333 korunmasına	-0.4865
-99.9990 hedeflerimizden	-0.0776
-99.9990 farkı	-0.0769
-99.9990 iznin	-0.0774
-99.9990 girenler	-0.0775
-99.9990 engellenebilir	-0.0465
-99.9990 gökçeadaya	-0.0776
-99.9990 karardı	-0.0465
-4.0313 yaparken	-0.0776
-99.9990 çatışmaları	-0.0776
-99.9990 kanda	-0.0775
-99.9990 öldüğü	-0.0776
-4.0313 görünürlüğünün	-0.2260
-3.6333 kuvvetlerinin	-0.0767
-99.9990 getiriliş	-0.0776
-99.9990 ihtiyacı	-0.0776
-4.0313 önündeki	-0.0769
-3.6333 kanun	-0.0465
-99.9990 tartışmalarda	-0.0776
-99.9990 ilgileneceğim	-0.0774
-3.1862 olumlu	-0.0954
-99.9990 sözleşmenin	-0.0775
-3.7303 çocukları	-0.0775
-99.9990 isminin	-0.0649
-99.9990 lüzum	-0.0776
-99.9990 şüphen	-0.0775
-4.0313 yakalanan	-0.0688
-99.9990 açılmasıdır	-0.0465
-99.9990 inançlarından	-0.0775
-99.9990 yitip	-0.0776
-99.9990 görüşürken	-0.0774
-3.5542 gündeme	-0.1215
-99.9990 söylerdi	-0.0665
-99.9990 görevleri	-0.0770
-99.9990 beyler	-0.0776
-99.9990 konuşulabiliyor	-0.0776
-3.1562 amacıyla	-0.1289
-99.9990 muhtarlar	-0.0776
-99.9990 gruplarla	-0.0772
-3.8552 faaliyetleri	-0.4558
-99.9990 pisti	-0.0776
-99.9990 azaltılması	-0.0773
-99.9990 sahiplerinden	-0.0774
-99.9990 şükür	-0.0765
-99.9990 köyünden	-0.0776
-99.9990 olayına	-0.0776
-4.0313 konularda	-0.0773
-3.8552 girdi	-0.1277
-99.9990 meselede	-0.0649
-3.8552 gördük	-0.1397
-4.0313 gördüm	-0.0460
-99.9990 girin	-0.0775
-99.9990 girip	-0.0775
-4.0313 bakandır	-0.0458
-4.0313 konularla	-0.0729
-99.9990 konuşabiliriz	-0.0774
-99.9990 miktarda	-0.0776
-99.9990 olgusuna	-0.0776
-99.9990 inceleteceğimi	-0.0776
-3.4292 meselesi	-0.0448
-99.9990 giriyor	-0.0665
-4.0313 meseleye	-0.0736
-3.8552 meseleyi	-0.0765
-99.9990 soyunmuştur	-0.0465
-99.9990 kalacaktır	-0.0465
-99.9990 tarafımıza	-0.0776
-2.5999 milletler	-0.6312
-4.0313 belirtilen	-0.0776
-4.0313 sağlıklı	-0.2149
-99.9990 söylesin	-0.0465
-99.9990 haricinde	-0.0772
-99.9990 kemerinden	-0.0776
-3.8552 misafirperver	-0.4432
-99.9990 çıkaracaksın	-0.0773
-99.9990 birliklerine	-0.0776
-99.9990 avrupadaki	-0.0775
-99.9990 düşünülen	-0.0775
-4.0313 cihanda	-0.2259
-99.9990 özgürlüklere	-0.0775
-99.9990 özgürlükleri	-0.0665
-99.9990 tekrarlayalım	-0.0465
-4.0313 parlamentonun	-0.0772
-99.9990 hazırladık	-0.0771
-4.0313 süngülerle	-0.0776
-4.0313 yaşadığımız	-0.0773
-3.1019 çünkü	-0.1097
-99.9990 addettim	-0.0465
-99.9990 engelleyelim	-0.0775
-99.9990 markası	-0.0760
-99.9990 tefek	-0.0776
-99.9990 sunulmak	-0.0771
-99.9990 selamlarım	-0.0465
-99.9990 kürtlerini	-0.0776
-4.0313 taraf	-0.0756
-99.9990 görevde	-0.0776
-99.9990 desteklediğini	-0.0775
-3.1862 tarih	-0.2931
-99.9990 önemlisini	-0.0737
-99.9990 kısmına	-0.0776
-99.9990 borcumuzdur	-0.0465
-99.9990 görevli	-0.0775
-99.9990 sorunlarından	-0.0774
-4.0313 veremem	-0.0465
-99.9990 ınterim	-0.0776
-99.9990 sınırlarımıza	-0.0764
-99.9990 bakanlığına	-0.0774
-99.9990 olaydır	-0.0465
-3.2184 olsun	-0.1615
-3.2531 suriyede	-0.0758
-99.9990 gitti	-0.0776
-4.0313 katı	-0.0776
-99.9990 yevmiye	-0.0665
-3.4872 suriyeli	-0.1035
-4.0313 çeyrek	-0.2259
-99.9990 yazılıyor	-0.0649
-4.0313 akdenizde	-0.0775
-3.8552 söylediği	-0.0767
-3.8552 sınav	-0.0661
-99.9990 önergemizin	-0.0737
-3.2184 suriyeye	-0.0647
-99.9990 atmışa	-0.0772
-99.9990 anlamıyorsunuz	-0.0465
-99.9990 iletişimlerimiz	-0.0767
-3.0313 karar	-0.3271
-2.8852 bugün	-0.1063
-99.9990 komitacı	-0.0776
-3.7303 terörist	-0.1453
-3.7303 yargı	-0.0766
-3.8552 adıdır	-0.1386
-3.7303 ellerinden	-0.3263
-4.0313 öldürülmüş	-0.0664
-99.9990 süreçlerde	-0.0775
-99.9990 harcandığı	-0.0776
-99.9990 başlangıcını	-0.0775
-99.9990 başkanlığınızda	-0.0768
-3.8552 barbar	-0.0775
-99.9990 dağdan	-0.0776
-99.9990 sırtına	-0.0776
-99.9990 anlayamadığı	-0.0774
-3.6333 sağlık	-0.0774
-99.9990 yahudileri	-0.0776
-99.9990 batı	-0.0776
-99.9990 birbirlerine	-0.0775
-99.9990 otelin	-0.0774
-99.9990 geliştirebilecek	-0.0776
-3.3781 söyledi	-0.1542
-99.9990 geçiyoruz	-0.0465
-99.9990 bilinememektedir	-0.0465
-99.9990 söyleme	-0.0776
-99.9990 kaybettiğini	-0.0775
-4.0313 olurdu	-0.0454
-99.9990 kaçınıyorum	-0.0465
-99.9990 oluru	-0.0756
-99.9990 illerde	-0.0776
-99.9990 karargah	-0.0776
-3.3323 olursa	-0.1767
-99.9990 duygularla	-0.0776
-99.9990 olurum	-0.0465
-99.9990 oluruz	-0.0465
-99.9990 doludur	-0.0465
-99.9990 operasyon	-0.0776
-4.0313 verilmiştir	-0.1950
-99.9990 yaşatmaya	-0.0773
-99.9990 gidelim	-0.0771
-99.9990 burkucu	-0.0465
-99.9990 asamblesi	-0.0776
-99.9990 insafsız	-0.0776
-99.9990 mağaralardaki	-0.0776
-4.0313 kemalettin	-0.0775
-99.9990 belirsizlik	-0.0770
-3.7303 gereğince	-0.0764
-99.9990 kaçıncı	-0.0775
-99.9990 cevapsız	-0.0776
-3.4872 katip	-0.3951
-3.6333 karakol	-0.0775
-99.9990 kaçan	-0.0775
-99.9990 olurlarımız	-0.0775
-99.9990 danalar	-0.0776
-99.9990 küllerinden	-0.0774
-99.9990 planlamasının	-0.0775
-99.9990 kadire	-0.0649
-99.9990 tamamlanmıştır	-0.0465
-99.9990 basan	-0.0649
-99.9990 direniş	-0.0776
-99.9990 tırları	-0.0776
-99.9990 karşılığını	-0.0776
-99.9990 vurmamıştır	-0.0465
-4.0313 sürgün	-0.0775
-99.9990 öğretmen	-0.0665
-99.9990 koloni	-0.0767
-99.9990 alkışlıyorlar	-0.0760
-3.7303 ııı	-0.4000
-4.0313 şimdiye	-0.2249
-99.9990 periyotlarla	-0.0775
-3.6333 hakları	-0.0663
-99.9990 sağlarız	-0.0765
-99.9990 olmuşlardır	-0.0465
-99.9990 sunmuş	-0.0776
-99.9990 tartışılabiliyor	-0.0465
-99.9990 yaparsın	-0.0465
-99.9990 ihtilafının	-0.0771
-99.9990 düzenlendiğini	-0.0774
-4.0313 beyrut	-0.0776
-99.9990 tutulamadığı	-0.0776
-99.9990 aracı	-0.0756
-99.9990 geçmeden	-0.0769
-99.9990 illerden	-0.0774
-99.9990 hükümetimizin	-0.0768
-99.9990 yetmezmiş	-0.0767
-99.9990 sabrımız	-0.0776
-99.9990 içeriyor	-0.0465
-4.0313 nihayet	-0.0762
-99.9990 sayılabilir	-0.0465
-99.9990 gazeteleri	-0.0773
-4.0313 alınmalı	-0.0346
-3.6333 şeklinde	-0.0775
-3.5542 kazanmıştır	-0.3432
-4.0313 subjektif	-0.0775
-99.9990 batur	-0.0776
-99.9990 kazaları	-0.0775
-4.0313 söyleyen	-0.0618
-4.0313 hükümetler	-0.0767
-4.0313 insanlarımızın	-0.0688
-99.9990 haksızlığa	-0.0768
-99.9990 görünmeyen	-0.0776
-99.9990 vererek	-0.0773
-99.9990 vilayetlerimizden	-0.0737
-99.9990 namına	-0.0776
-99.9990 esnafıyla	-0.0776
-99.9990 tutulan	-0.0776
-3.7303 dönük	-0.0759
-4.0313 dönüp	-0.0771
-99.9990 kavga	-0.0771
-99.9990 tacizlere	-0.0776
-3.8552 sınıfı	-0.4558
-99.9990 koalisyona	-0.0773
-99.9990 bulmam	-0.0465
-4.0313 üyesi	-0.0767
-99.9990 özünde	-0.0775
-3.8552 anadolunun	-0.0773
-99.9990 gemisinden	-0.0776
-3.3781 devletin	-0.0748
-99.9990 sergilemiş	-0.0776
-99.9990 devletle	-0.0776
-4.0313 partiler	-0.0773
-99.9990 üyeye	-0.0764
-99.9990 telef	-0.0774
-99.9990 başbakanımıza	-0.0766
-99.9990 yolların	-0.0776
-99.9990 değerlendirmesi	-0.0776
-3.6333 uygun	-0.1307
-4.0313 uygur	-0.0776
-99.9990 mersinden	-0.0776
-99.9990 yılları	-0.0773
-99.9990 mücadelesi	-0.0465
-99.9990 soktuğunuz	-0.0771
-99.9990 gezmişi	-0.0773
-4.0313 mücadeleyi	-0.0769
-99.9990 üçkuyularda	-0.0772
-99.9990 mezarlığında	-0.0665
-99.9990 vekillerinin	-0.0775
-99.9990 annelerin	-0.0775
-99.9990 tanınamayacak	-0.0775
-99.9990 militanlarının	-0.0776
-3.8552 politikalarının	-0.1702
-99.9990 karşılığında	-0.0776
-99.9990 konutlara	-0.0775
-99.9990 konuşulmaktadır	-0.0465
-3.5542 hayırlı	-0.2262
-99.9990 köyünde	-0.0776
-99.9990 yaşatılmıştır	-0.0465
-3.2909 halaçoğlu	-0.1105
-3.8552 durumdadır	-0.4248
-99.9990 beyoğlunda	-0.0776
-99.9990 kuvayımilliye	-0.0775
-99.9990 organın	-0.0649
-3.8552 gizli	-0.0776
-2.3878 büyük	-0.7186
-2.7195 böyle	-0.3796
-99.9990 olduğum	-0.0771
-99.9990 amacımız	-0.0731
-99.9990 diyorlar	-0.0465
-99.9990 öldürürsünüz	-0.0689
-3.7303 icrasında	-0.3256
-3.6333 temel	-0.0776
-99.9990 partimin	-0.0776
-4.0313 temin	-0.2255
-99.9990 tanınabilen	-0.0772
-99.9990 görmeye	-0.0737
-99.9990 sunuşları	-0.0771
-4.0313 alındığı	-0.0688
-99.9990 giderilemeyen	-0.0775
-99.9990 reformlar	-0.0776
-99.9990 devamına	-0.0775
-99.9990 aşkın	-0.0776
-99.9990 değerlendirmiş	-0.0775
-99.9990 ortadayken	-0.0764
-99.9990 peşindeki	-0.0774
-99.9990 inanarak	-0.0689
-3.7303 söyleyeyim	-0.0678
-3.8552 yaşadığı	-0.0774
-99.9990 üretiminin	-0.0776
-4.0313 saçmalık	-0.2258
-99.9990 yüklenmektedir	-0.0465
-99.9990 mutlulukla	-0.0773
-99.9990 baş	-0.0776
-99.9990 haksızlığın	-0.0775
-99.9990 kurtulmayı	-0.0776
-99.9990 yayılan	-0.0649
-3.1562 kararı	-0.1196
-99.9990 günlerce	-0.0775
-99.9990 devletleri	-0.0768
-4.0313 günlerde	-0.0774
-99.9990 günlerdi	-0.0465
-99.9990 erecek	-0.0775
-4.0313 diyarbakır	-0.0776
-3.7303 seçim	-0.0775
-99.9990 dönmelidir	-0.0465
-99.9990 yayılma	-0.0776
-3.7303 kurulan	-0.3261
-99.9990 partinin	-0.0776
-99.9990 aradan	-0.0766
-3.4292 unsurlarının	-0.2581
-3.8552 demografik	-0.0647
-99.9990 girerken	-0.0776
-3.2531 dünya	-0.1101
-3.2909 bazı	-0.1008
-99.9990 artırılmasını	-0.0776
-3.4872 kurulun	-0.1448
-99.9990 gördüğünden	-0.0775
-99.9990 çıkmazlar	-0.0465
-99.9990 soğuk	-0.0776
-99.9990 kamışlı	-0.0776
-99.9990 anayasamızın	-0.0773
-3.8552 uygundur	-0.4248
-99.9990 nüfusa	-0.0769
-3.5542 nüfusu	-0.3823
-99.9990 gösterilecek	-0.0776
-99.9990 duyduğumuz	-0.0776
-4.0313 sermiştir	-0.1950
-3.6333 belde	-0.2638
-99.9990 atıyor	-0.0465
-99.9990 belen	-0.0775
-3.6333 belge	-0.0712
-3.6333 yıllarda	-0.1211
-2.5999 birleşmiş	-1.8089
-3.8552 belki	-0.0680
-3.7303 belli	-0.2951
-4.0313 ikide	-0.0765
-99.9990 yılın	-0.0776
-4.0313 suretle	-0.0737
-99.9990 ölümsüzlüğün	-0.0665
-3.8552 halkını	-0.0776
-99.9990 pkklıyla	-0.0776
-3.6333 ikili	-0.1307
-99.9990 beklenmedik	-0.0772
-3.7303 hususlar	-0.3262
-99.9990 karşıyım	-0.0774
-99.9990 hayırlar	-0.0776
-99.9990 ikisi	-0.0776
-3.8552 giderek	-0.0775
-99.9990 katılımcı	-0.0775
-99.9990 batılı	-0.0775
-99.9990 ikiye	-0.0774
-99.9990 komisyonundan	-0.0740
-4.0313 giderme	-0.0776
-99.9990 coğrafyasının	-0.0766
-2.9899 kendi	-0.0886
-99.9990 talepler	-0.0772
-99.9990 tespitte	-0.0776
-99.9990 kibri	-0.0665
-99.9990 tamamlayın	-0.0775
-99.9990 demiştik	-0.0771
-99.9990 demiştim	-0.0465
-99.9990 yaşamaktayız	-0.0465
-3.8552 alıyorsunuz	-0.4248
-99.9990 isteyenlere	-0.0775
-99.9990 hükümetinize	-0.0775
-99.9990 başkanları	-0.0775
-99.9990 bugünlerde	-0.0768
-99.9990 nefretin	-0.0776
-99.9990 canım	-0.0764
-99.9990 canın	-0.0776
-99.9990 bayar	-0.0775
-99.9990 sunuşlarda	-0.0776
-99.9990 bugünlerle	-0.0765
-99.9990 sınırındaki	-0.0776
-99.9990 illerine	-0.0776
-3.6333 oluyor	-0.2326
-99.9990 düzenlenen	-0.0649
-99.9990 olursak	-0.0774
-99.9990 tepki	-0.0774
-99.9990 toplanamadığından	-0.0776
-3.8552 halaskaran	-0.4558
-4.0313 baba	-0.0776
-99.9990 kerbelayıh	-0.0465
-99.9990 baki	-0.0776
-3.3323 bana	-0.0979
-3.8552 kararda	-0.1620
-99.9990 olamadıklarımız	-0.0764
-99.9990 düştüğü	-0.0756
-99.9990 eserler	-0.0776
-99.9990 bari	-0.0689
-99.9990 hepsinden	-0.0774
-4.0313 hiçe	-0.0776
-3.8552 ufak	-0.1580
-3.5542 devlete	-0.1204
-99.9990 devleti	-0.0665
-3.5542 kararla	-0.2267
-99.9990 değiştirmek	-0.0774
-4.0313 zulüm	-0.0688
-3.8552 halkına	-0.0753
-99.9990 vekilden	-0.0775
-3.7303 bence	-0.0710
-99.9990 cümlede	-0.0776
-99.9990 soygunculuğa	-0.0775
-99.9990 cephane	-0.0776
-99.9990 kentlerinde	-0.0774
-3.3781 benim	-0.0735
-3.6333 mustafa	-0.0775
-99.9990 ödemiş	-0.0767
-99.9990 andık	-0.0465
-99.9990 bazen	-0.0737
-99.9990 tutumunu	-0.0776
-3.8552 cümlemi	-0.4558
-99.9990 afyona	-0.0776
-99.9990 afyonu	-0.0776
-99.9990 dersimlileri	-0.0775
-99.9990 vefatından	-0.0774
-99.9990 necati	-0.0776
-99.9990 esnaf	-0.0775
-99.9990 doğrultamayacaklarını	-0.0769
-99.9990 bekletildiği	-0.0737
-2.9344 demokratik	-0.4529
-99.9990 eşkıyanın	-0.0775
-99.9990 anlaşılacak	-0.0465
-99.9990 yardımlaşma	-0.0775
-4.0313 mısırda	-0.0776
-3.4292 verilen	-0.0752
-99.9990 maddelerin	-0.0776
-4.0313 kalıyor	-0.0465
-3.7303 türkeş	-0.0446
-99.9990 erzincanın	-0.0774
-99.9990 mısırla	-0.0775
-99.9990 bakımını	-0.0773
-99.9990 kendimizi	-0.0465
-2.5689 beş	-0.4418
-99.9990 pkklının	-0.0775
-99.9990 petrol	-0.0776
-99.9990 gösterilmemelidir	-0.0737
-99.9990 çizerken	-0.0689
-99.9990 cihazla	-0.0773
-3.8552 geçmekte	-0.4551
-99.9990 kış	-0.0776
-99.9990 bucağı	-0.0776
-4.0313 alana	-0.0776
-3.7303 ahmet	-0.0774
-3.4292 alınması	-0.1336
-99.9990 gerçekleşmemiş	-0.0760
-4.0313 kuşak	-0.0774
-4.0313 biçimiyle	-0.0772
-99.9990 belirtiyor	-0.0665
-99.9990 verimli	-0.0774
-3.8552 tampon	-0.4553
-99.9990 çapulculuk	-0.0776
-99.9990 muhtelif	-0.0776
-99.9990 rabbimden	-0.0774
-99.9990 sonucuna	-0.0776
-99.9990 sonucunu	-0.0776
-99.9990 karşılamaktadır	-0.0465
-99.9990 insanlara	-0.0774
-3.8552 hususunda	-0.0770
-3.6333 denetim	-0.3336
-4.0313 açıklayın	-0.0448
-4.0313 ortamından	-0.2260
-99.9990 akhisar	-0.0776
-3.7303 raporda	-0.0761
-99.9990 verilmiyor	-0.0465
-4.0313 ikmal	-0.0775
-99.9990 kimseden	-0.0776
-99.9990 kararlarında	-0.0774
-99.9990 düşünüyor	-0.0775
-99.9990 belgeden	-0.0665
-99.9990 verirseniz	-0.0776
-99.9990 yönetime	-0.0737
-99.9990 yönetimi	-0.0772
-3.8552 onları	-0.0776
-99.9990 artırdığı	-0.0649
-99.9990 gereklilikler	-0.0775
-99.9990 tesir	-0.0775
-3.8552 tesis	-0.0774
-99.9990 faydasına	-0.0776
-3.7303 saldırı	-0.0748
-99.9990 sağlayacağını	-0.0774
-99.9990 yamaçları	-0.0776
-99.9990 verince	-0.0766
-4.0313 hükümetten	-0.0764
-99.9990 raçkotan	-0.0665
-99.9990 limanlardan	-0.0775
-99.9990 yarımadasında	-0.0773
-99.9990 katlederken	-0.0649
-3.5542 olmadığını	-0.0754
-99.9990 tartışılan	-0.0773
-4.0313 dörtüncü	-0.0773
-3.7303 kesimi	-0.3258
-99.9990 kutlarım	-0.0465
-99.9990 çabasının	-0.0776
-99.9990 tartışılsa	-0.0773
-99.9990 bizlerden	-0.0775
-99.9990 çıkarıp	-0.0770
-99.9990 ayaklarıyla	-0.0776
-3.4872 istikrara	-0.2521
-99.9990 koşmam	-0.0766
-99.9990 hazırlığı	-0.0774
-4.0313 yıkılıyor	-0.2258
-4.0313 birkaç	-0.0774
-99.9990 bölüğü	-0.0771
-99.9990 altıncı	-0.0665
-99.9990 barışımızı	-0.0772
-99.9990 çalışmaktadır	-0.0465
-4.0313 sopalarıyla	-0.0774
-99.9990 divanından	-0.0689
-3.8552 osmanlının	-0.0762
-99.9990 gazetesinin	-0.0776
-99.9990 değerlendiriyor	-0.0773
-99.9990 çıpası	-0.0756
-4.0313 diyorsun	-0.0464
-4.0313 giremeyen	-0.0774
-99.9990 aralanmasını	-0.0776
-4.0313 beni	-0.0465
-99.9990 müzakereler	-0.0776
-99.9990 facia	-0.0776
-3.7303 beri	-0.0774
-99.9990 çıkarları	-0.0774
-99.9990 kuşağın	-0.0771
-99.9990 artırmak	-0.0768
-99.9990 katılımının	-0.0776
-99.9990 sendikasızlaştırmanın	-0.0649
-99.9990 şartlara	-0.0772
-99.9990 yargılamaya	-0.0731
-3.0313 kırk	-0.2227
-3.7303 kısa	-0.2121
-99.9990 geçmenin	-0.0770
-99.9990 saklamıştır	-0.0465
-3.3323 süre	-0.2318
-99.9990 politikasını	-0.0776
-99.9990 talimatlarının	-0.0776
-4.0313 ordusunun	-0.0771
-99.9990 rahatlatmalıdır	-0.0465
-99.9990 katıldığı	-0.0776
-99.9990 yaş	-0.0773
-3.7303 hukuksuz	-0.1295
-4.0313 dahiliye	-0.0773
-4.0313 sözünü	-0.0771
-99.9990 nurettin	-0.0776
-99.9990 geldiğinizde	-0.0776
-99.9990 süngületilerek	-0.0764
-99.9990 yaşananlardan	-0.0776
-99.9990 arakan	-0.0773
-99.9990 maksatla	-0.0774
-99.9990 çeşitlendi	-0.0465
-99.9990 saldırıların	-0.0772
-99.9990 hatırlatıyoruz	-0.0465
-3.7303 perşembe	-0.1451
-99.9990 elazığa	-0.0771
-99.9990 ölmeden	-0.0769
-99.9990 imkansızdır	-0.0465
-2.9010 buyurun	-0.7940
-99.9990 kurtarabilmek	-0.0756
-99.9990 onlarca	-0.0775
-4.0313 hukuktan	-0.0776
-99.9990 kınıyoruz	-0.0728
-99.9990 saldırının	-0.0776
-99.9990 davetlerde	-0.0772
-99.9990 ıslaha	-0.0775
-4.0313 sarıbaş	-0.0757
-3.7303 yukarıda	-0.0766
-99.9990 vekiline	-0.0775
-99.9990 yayınladığı	-0.0649
-99.9990 iktidarınızla	-0.0649
-99.9990 çıkartılan	-0.0776
-99.9990 öldürülmüşse	-0.0771
-99.9990 bağlantı	-0.0776
-3.8552 adımlar	-0.0773
-99.9990 unı	-0.0776
-99.9990 şahsı	-0.0769
-4.0313 kapatılmasına	-0.0775
-99.9990 adamına	-0.0776
-99.9990 demeyeceğim	-0.0770
-99.9990 boztaş	-0.0776
-99.9990 alevi	-0.0774
-99.9990 çocuklarından	-0.0776
-99.9990 şekliyle	-0.0766
-99.9990 vermeli	-0.0774
-3.8552 otuzların	-0.0618
-4.0313 vermesi	-0.2149
-99.9990 sekretarya	-0.0767
-99.9990 milletvekilimin	-0.0689
-99.9990 milletvekilimiz	-0.0728
-99.9990 bastırılmıştır	-0.0465
-99.9990 havalanan	-0.0772
-99.9990 ayaktadır	-0.0665
-3.4292 yakından	-0.2262
-99.9990 kimliksizleştirme	-0.0776
-3.8552 katkılar	-0.0775
-99.9990 sunduk	-0.0765
-99.9990 sundum	-0.0775
-3.8552 altıda	-0.0772
-99.9990 ulus	-0.0773
-4.0313 bilmiyorum	-0.0764
-99.9990 bilmiyoruz	-0.0465
-99.9990 ölüme	-0.0775
-99.9990 eteklerinde	-0.0772
-4.0313 yönetmek	-0.0774
-99.9990 planını	-0.0740
-99.9990 takiben	-0.0773
-3.4872 altına	-0.0767
-99.9990 türklerinin	-0.0776
-99.9990 katledilmesine	-0.0771
-99.9990 çıkaracağımız	-0.0689
-99.9990 almışsa	-0.0776
-99.9990 tavsiyelerde	-0.0776
-99.9990 bünyesinde	-0.0773
-3.5542 başkanlığına	-0.0753
-99.9990 değerlendirmesini	-0.0776
-99.9990 düzeltmek	-0.0775
-99.9990 yahu	-0.0689
-99.9990 anmasıyla	-0.0689
-99.9990 nazaran	-0.0756
-99.9990 cephesinde	-0.0776
-99.9990 artmaktadır	-0.0465
-3.6333 milletvekilinin	-0.0768
-3.7303 yana	-0.0746
-2.6247 yani	-0.0819
-3.6333 vermiş	-0.1911
-99.9990 inanmıyorum	-0.0765
-99.9990 söyleminizde	-0.0756
-3.4872 sınırı	-0.1060
-4.0313 yasa	-0.2260
-99.9990 ekonomilerinde	-0.0776
-99.9990 umum	-0.0776
-4.0313 umut	-0.0776
-99.9990 okullarına	-0.0775
-99.9990 anlatımlara	-0.0772
-99.9990 durmaz	-0.0772
-99.9990 dağda	-0.0775
-3.4292 çocuk	-0.1100
-2.3367 türkiye	-0.4254
-4.0313 hususunu	-0.0689
-4.0313 dersimdeki	-0.0774
-99.9990 muhterem	-0.0776
-99.9990 sunabildiğiniz	-0.0768
-3.1282 bile	-0.0792
-3.5542 mühimmat	-0.1196
-99.9990 divanına	-0.0740
-4.0313 bina	-0.0665
-99.9990 bine	-0.0774
-99.9990 bini	-0.0776
-99.9990 alınıncaya	-0.0764
-3.4292 biri	-0.0898
-99.9990 yaşını	-0.0776
-3.4872 bize	-0.0428
-4.0313 bizi	-0.0773
-99.9990 gösterilemez	-0.0776
-99.9990 farklıdır	-0.0465
-99.9990 sektörlerin	-0.0737
-99.9990 vekiller	-0.0764
-99.9990 aldınız	-0.0465
-99.9990 gizliliği	-0.0776
-99.9990 benden	-0.0774
-99.9990 edeni	-0.0776
-4.0313 muhalefet	-0.0754
-3.8552 uyguladığı	-0.1704
-99.9990 psikiyatri	-0.0776
-3.8552 kesinlikle	-0.0689
-99.9990 tamamlamazsam	-0.0774
-99.9990 masumlara	-0.0771
-4.0313 kaybedenlerin	-0.0772
-3.5542 çeşitli	-0.1215
-4.0313 yazdığı	-0.0771
-99.9990 çalışabileceğimizi	-0.0689
-99.9990 müfettişi	-0.0775
-99.9990 oğluma	-0.0775
-99.9990 yargılanması	-0.0776
-99.9990 talihsiz	-0.0465
-99.9990 doğaldır	-0.0765
-4.0313 kilit	-0.2260
-99.9990 somalili	-0.0776
-99.9990 direnç	-0.0774
-4.0313 limanlarına	-0.0775
-3.8552 ettiler	-0.1397
-99.9990 korumuş	-0.0665
-99.9990 ahırlarda	-0.0776
-99.9990 artırırsak	-0.0771
-99.9990 kahmut	-0.0776
-3.8552 kaldı	-0.4548
-3.7303 alınan	-0.0687
-99.9990 kuraklığa	-0.0465
-4.0313 türkkan	-0.0771
-2.9010 vardır	-0.4673
-99.9990 tiner	-0.0776
-99.9990 yapıldığı	-0.0771
-99.9990 karargahında	-0.0772
-99.9990 getirecek	-0.0774
-4.0313 hizmetler	-0.0776
-99.9990 etmiştik	-0.0465
-99.9990 etmiştim	-0.0465
-3.4872 etmiştir	-0.9232
-99.9990 sınırda	-0.0774
-4.0313 oranlarına	-0.2259
-99.9990 benzerinin	-0.0775
-99.9990 alınsaydı	-0.0770
-4.0313 kimin	-0.2260
-99.9990 görmeden	-0.0766
-99.9990 sempatizanları	-0.0764
-4.0313 inceleyecek	-0.2244
-99.9990 istikrarsızlık	-0.0776
-99.9990 vekile	-0.0775
-3.1562 vekili	-0.2156
-99.9990 asrının	-0.0769
-99.9990 kısım	-0.0775
-99.9990 keyfi	-0.0776
-3.8552 beraberinde	-0.1579
-3.4292 kimse	-0.0637
-3.4872 istikrarına	-0.2483
-4.0313 yüzlerce	-0.0766
-99.9990 başladığınız	-0.0689
-4.0313 olduğuna	-0.0772
-3.0101 olduğunu	-0.1418
-99.9990 durmalı	-0.0772
-3.4872 bilgi	-0.0446
-3.7303 bilim	-0.1455
-99.9990 bilir	-0.0773
-99.9990 vazgeçerseniz	-0.0771
-99.9990 anlayışımız	-0.0775
-99.9990 yapacağımız	-0.0770
-99.9990 etkiler	-0.0775
-3.8552 öğüt	-0.0717
-99.9990 kimseler	-0.0775
-4.0313 belgeler	-0.0748
-3.7303 aittir	-0.2834
-4.0313 bunlara	-0.0764
-99.9990 yaşında	-0.0649
-99.9990 şekildeki	-0.0649
-99.9990 teşhis	-0.0776
-99.9990 mağduriyete	-0.0776
-99.9990 mağduriyeti	-0.0756
-99.9990 belirtilmek	-0.0775
-99.9990 oldukları	-0.0776
-3.8552 konusundaki	-0.0774
-99.9990 seviyededir	-0.0465
-3.8552 etmeleri	-0.1616
-3.7303 katkısı	-0.1433
-99.9990 okutuyorum	-0.0776
-99.9990 çıkmaktadır	-0.0465
-2.6163 yedi	-0.3804
-99.9990 ettiniz	-0.0770
-3.8552 sözlerime	-0.0769
-99.9990 sözlerini	-0.0776
-2.9010 yeni	-0.1357
-99.9990 idamı	-0.0775
-99.9990 artırılarak	-0.0776
-3.8552 yere	-0.0773
-3.8552 yeri	-0.0776
-4.0313 alacaktır	-0.1950
-4.0313 beyan	-0.0773
-3.8552 sunulan	-0.1702
-99.9990 operasyona	-0.0775
-4.0313 operasyonu	-0.2257
-99.9990 sınırlarımızın	-0.0772
-99.9990 harekatıdır	-0.0665
-99.9990 beyim	-0.0465
-3.8552 beyin	-0.0736
-3.6333 lübnanı	-0.3450
-4.0313 konuşmasını	-0.0756
-99.9990 yaşandığının	-0.0769
-3.6333 sunulur	-0.4560
-99.9990 düşman	-0.0775
-4.0313 gerekçesini	-0.2260
-99.9990 rojavadaki	-0.0775
-4.0313 eylemlerde	-0.2260
-99.9990 faik	-0.0776
-99.9990 zararı	-0.0760
-4.0313 lütfü	-0.2260
-99.9990 mektuba	-0.0776
-99.9990 batıyı	-0.0760
-4.0313 mektubu	-0.0772
-99.9990 antakyada	-0.0776
-99.9990 eylemlerin	-0.0776
-99.9990 yazdı	-0.0776
-99.9990 döndüğü	-0.0776
-4.0313 fare	-0.2251
-3.4292 fakat	-0.1703
-99.9990 milliyetçiliği	-0.0776
-99.9990 gencimiz	-0.0776
-3.8552 kapsamda	-0.0641
-4.0313 içimizde	-0.0767
-3.7303 bakanlık	-0.0774
-99.9990 milletvekilisin	-0.0465
-99.9990 osmanlılar	-0.0775
-99.9990 tarihleri	-0.0773
-99.9990 edici	-0.0649
-3.8552 şartları	-0.1703
-4.0313 halkıyla	-0.0775
-3.5542 binin	-0.2896
-3.4292 bezar	-0.3262
-3.5542 meşru	-0.0646
-99.9990 üstten	-0.0775
-99.9990 öztrak	-0.0776
-3.7303 allah	-0.0774
-99.9990 etkinliklerinin	-0.0773
-4.0313 kimsenin	-0.0776
-4.0313 belgenin	-0.0774
-99.9990 tutulmasının	-0.0776
-99.9990 farkında	-0.0776
-99.9990 sunumun	-0.0776
-99.9990 pankarttı	-0.0775
-99.9990 dönüştürülmektedir	-0.0465
-99.9990 karşılığı	-0.0776
-99.9990 oğlu	-0.0776
-99.9990 çözüme	-0.0776
-99.9990 atanmasına	-0.0775
-3.8552 falan	-0.0776
-99.9990 konuşurken	-0.0776
-3.3781 roman	-0.1062
-3.8552 ferhat	-0.0776
-3.8552 tekrarlayacağım	-0.1277
-3.8552 uygunsuz	-0.1707
-99.9990 taşıdıkları	-0.0775
-99.9990 gösterilerek	-0.0776
-99.9990 yapmamız	-0.0774
-99.9990 hileli	-0.0775
-3.6333 almak	-0.0772
-99.9990 alman	-0.0776
-4.0313 usul	-0.2260
-4.0313 odağı	-0.0772
-99.9990 sığınmaya	-0.0776
-99.9990 barındırmaktadır	-0.0465
-99.9990 dönmüş	-0.0689
-99.9990 kuruluşlar	-0.0775
-99.9990 kararlarıyla	-0.0775
-99.9990 hepten	-0.0775
-4.0313 yoklamada	-0.2259
-3.6333 teşkil	-0.1307
-99.9990 beklentisi	-0.0772
-99.9990 yargılamayı	-0.0649
-99.9990 korkacak	-0.0649
-99.9990 gurbetçilerimizin	-0.0776
-99.9990 münferit	-0.0776
-99.9990 çıkışını	-0.0776
-99.9990 geçiriyorlar	-0.0465
-99.9990 konuşurlar	-0.0465
-99.9990 eşliğinde	-0.0776
-99.9990 boko	-0.0776
-3.0101 lübnanda	-0.2227
-99.9990 veriyor	-0.0776
-99.9990 fasılların	-0.0776
-3.7303 güvenliğini	-0.0771
-99.9990 ölümün	-0.0774
-99.9990 ulusalcısıyla	-0.0776
-3.7303 siyasetin	-0.0669
-3.7303 lübnanla	-0.3263
-99.9990 rütbesinde	-0.0649
-99.9990 rütbesinin	-0.0776
-99.9990 kazanılmaz	-0.0770
-99.9990 vermenizi	-0.0728
-99.9990 açımız	-0.0775
-4.0313 açıkçası	-0.0776
-99.9990 cepheden	-0.0776
-4.0313 polemik	-0.0776
-3.6333 lütfen	-0.3017
-4.0313 bakabilirsiniz	-0.0464
-99.9990 talebiniz	-0.0775
-4.0313 bulundukları	-0.0661
-99.9990 geçmişse	-0.0768
-3.8552 verirsiniz	-0.1395
-3.7303 geçmişte	-0.0754
-99.9990 edebilirse	-0.0776
-99.9990 batıyla	-0.0776
-99.9990 yıldızlı	-0.0776
-99.9990 göstermeyen	-0.0776
-99.9990 itilmesi	-0.0776
-2.8699 tüm	-0.0997
-3.8552 tür	-0.0775
-99.9990 cambazlığı	-0.0756
-99.9990 chpliler	-0.0776
-99.9990 savaşçıların	-0.0776
-99.9990 ailelere	-0.0776
-3.6333 aileleri	-0.0648
-4.0313 ilçemizde	-0.0775
-99.9990 öldürülmesinden	-0.0769
-4.0313 sunmak	-0.0775
-99.9990 kirve	-0.0776
-3.1019 yine	-0.1200
-99.9990 öğrencisi	-0.0665
-99.9990 geçiş	-0.0776
-99.9990 türkmenlerle	-0.0776
-99.9990 öğrenciyi	-0.0774
-99.9990 ortalık	-0.0776
-99.9990 organı	-0.0767
-99.9990 tutacağı	-0.0649
-4.0313 tespiti	-0.0753
-4.0313 başladı	-0.0720
-99.9990 diktatöryel	-0.0775
-99.9990 gemimiz	-0.0776
-3.8552 tıp	-0.1707
-4.0313 tır	-0.2260
-99.9990 talimatlandırarak	-0.0776
-99.9990 çetesinden	-0.0760
-4.0313 duruma	-0.0771
-99.9990 durumu	-0.0776
-99.9990 merkezi	-0.0775
-99.9990 sofralarında	-0.0665
-99.9990 kalmayacaktı	-0.0765
-3.4292 biraz	-0.1077
-99.9990 koydular	-0.0775
-3.4872 selden	-0.2503
-3.7303 yansımaları	-0.0765
-99.9990 gömdük	-0.0465
-99.9990 önergenin	-0.0765
-99.9990 gölüne	-0.0776
-3.8552 milyona	-0.0774
-99.9990 asfalt	-0.0775
-99.9990 insanlarına	-0.0776
-99.9990 etmeyeceğiz	-0.0465
-99.9990 katıldığını	-0.0775
-99.9990 geçmezse	-0.0776
-99.9990 suçluyorlar	-0.0465
-99.9990 afrinde	-0.0665
-3.2909 karşısında	-0.1207
-3.8552 öpüyorum	-0.1395
-99.9990 katkıyı	-0.0776
-4.0313 yaşının	-0.0776
-3.7303 öğrenci	-0.0763
-4.0313 çavuş	-0.0760
-99.9990 kitle	-0.0775
-99.9990 savaşçılara	-0.0774
-3.7303 sünni	-0.1451
-99.9990 yunan	-0.0776
-4.0313 basılması	-0.0644
-99.9990 selefi	-0.0776
-3.4872 maddesine	-0.4072
-99.9990 yerden	-0.0649
-99.9990 tekirdağ	-0.0776
-4.0313 fransızlar	-0.0767
-99.9990 okuyorum	-0.0772
-99.9990 yerdir	-0.0465
-99.9990 hayvanı	-0.0776
-99.9990 madalyonun	-0.0776
-99.9990 partilerin	-0.0776
-99.9990 bıraktığınız	-0.0776
-99.9990 artırmıştır	-0.0465
-99.9990 temeli	-0.0766
-99.9990 manisa	-0.0776
-4.0313 tutularak	-0.2249
-3.8552 tersine	-0.0687
-4.0313 vilayetinin	-0.2260
-99.9990 hizmetten	-0.0776
-3.0313 geçici	-0.5761
-99.9990 anlaşın	-0.0465
-3.7303 gidiyor	-0.1133
-99.9990 nakura	-0.0772
-99.9990 doldurulduğu	-0.0764
-99.9990 konuşacağım	-0.0465
-2.6421 altı	-0.3408
-4.0313 dilekçe	-0.0776
-3.6333 başbakanın	-0.0686
-99.9990 sorularım	-0.0776
-99.9990 tamamlayan	-0.0774
-3.2531 ayrıca	-0.1188
-99.9990 sorumlulukla	-0.0771
-99.9990 organik	-0.0776
-99.9990 bilgileri	-0.0776
-99.9990 vakitlice	-0.0775
-3.2531 yoktur	-1.1603
-99.9990 aksarayda	-0.0766
-99.9990 telefonlarımıza	-0.0776
-99.9990 yapılacaklar	-0.0775
-99.9990 önerdiği	-0.0776
-99.9990 oraların	-0.0776
-99.9990 koçgiri	-0.0775
-99.9990 cilası	-0.0774
-4.0313 sürü	-0.0775
-4.0313 annelerimizin	-0.0773
-99.9990 örnekleri	-0.0776
-4.0313 kırmızı	-0.2260
-4.0313 sistem	-0.0773
-3.8552 bitti	-0.4248
-99.9990 görüşmesi	-0.0774
-2.8852 içinde	-0.0769
-99.9990 gerekçesiyle	-0.0775
-4.0313 meclisindeki	-0.0773
-99.9990 ifadeler	-0.0775
-3.7303 belirlenecek	-0.4304
-99.9990 gözaltına	-0.0776
-99.9990 sıkıntımız	-0.0769
-99.9990 arayan	-0.0665
-4.0313 müttefiklerimizle	-0.2257
-99.9990 istasyonları	-0.0776
-2.9173 sayılı	-0.4547
-99.9990 hadiselerden	-0.0775
-99.9990 yansımalarını	-0.0775
-99.9990 görmemem	-0.0774
-3.7303 birilerinin	-0.0648
-4.0313 oluşturulmuş	-0.0775
-99.9990 kadınlarının	-0.0775
-99.9990 kurtuluş	-0.0776
-4.0313 sağlanamadığı	-0.0769
-4.0313 kardeşlerimize	-0.0766
-99.9990 kardeşlerimizi	-0.0775
-99.9990 yapmadığı	-0.0776
-4.0313 ülkemize	-0.0664
-99.9990 propaganda	-0.0776
-99.9990 verecekleri	-0.0776
-99.9990 deniyor	-0.0465
-99.9990 üncü	-0.0776
-4.0313 faruk	-0.2260
-99.9990 görmezseniz	-0.0760
-99.9990 anlatılamamıştır	-0.0465
-99.9990 olmasaydı	-0.0776
-4.0313 yapılıyor	-0.0417
-99.9990 dükkanlarını	-0.0776
-99.9990 satırlarla	-0.0775
-99.9990 lüksemburg	-0.0776
-4.0313 göreceksiniz	-0.2250
-99.9990 yoklamamız	-0.0776
-4.0313 rastlarsınız	-0.1950
-3.7303 grubuna	-0.4184
-99.9990 grubunu	-0.0776
-4.0313 niteliğindeki	-0.0773
-99.9990 yakılması	-0.0776
-99.9990 ipotek	-0.0776
-99.9990 görülmüştür	-0.0465
-4.0313 afyonda	-0.0776
-99.9990 oldubittiye	-0.0775
-99.9990 yaptıklarının	-0.0775
-99.9990 ağa	-0.0665
-99.9990 denizci	-0.0737
-3.7303 denizde	-0.4310
-3.3781 buna	-0.0725
-2.7641 bunu	-0.0844
-99.9990 denizin	-0.0776
-4.0313 radikal	-0.0647
-3.8552 uzak	-0.0649
-99.9990 muhsin	-0.0776
-99.9990 kaybediyor	-0.0765
-99.9990 çatışmada	-0.0740
-99.9990 göğüs	-0.0776
-4.0313 katliamının	-0.0773
-99.9990 kumandana	-0.0776
-99.9990 milletvekilimizin	-0.0773
-99.9990 arayarak	-0.0774
-3.5542 altay	-0.0402
-3.2909 uzun	-0.1122
-99.9990 okullarda	-0.0776
-99.9990 halükarda	-0.0756
-99.9990 mebusu	-0.0775
-99.9990 yığınak	-0.0776
-99.9990 istatistik	-0.0775
-3.7303 kurulmuş	-0.4295
-3.8552 çatışmaya	-0.0776
-99.9990 alıyor	-0.0465
-3.6333 dersimlilerin	-0.0774
-99.9990 indirileceğine	-0.0465
-99.9990 sunuş	-0.0773
-99.9990 nevzat	-0.0776
-99.9990 kurtarmak	-0.0775
-4.0313 bilfiil	-0.2257
-99.9990 kalmak	-0.0665
-99.9990 mitinge	-0.0776
-4.0313 kalmaz	-0.0465
-99.9990 süren	-0.0776
-99.9990 sürer	-0.0775
-3.7303 meclisine	-0.0764
-99.9990 fedakarca	-0.0776
-3.6333 ülkelerin	-0.0659
-3.8552 işleme	-0.4558
-99.9990 çevirmek	-0.0774
-4.0313 ülkelerle	-0.0775
-4.0313 işlere	-0.0770
-99.9990 işleri	-0.0772
-99.9990 bombardımanla	-0.0775
-4.0313 yapayım	-0.1950
-4.0313 profesör	-0.0774
-99.9990 bulundurularak	-0.0765
-4.0313 yola	-0.0774
-99.9990 fatma	-0.0776
-99.9990 teşkilatı	-0.0776
-3.8552 yolu	-0.0734
-99.9990 boşluğa	-0.0776
-99.9990 çalışmıştır	-0.0465
-99.9990 savunmalıdır	-0.0465
-3.4292 ışide	-0.1832
-99.9990 ışidi	-0.0774
-99.9990 açılışta	-0.0772
-99.9990 içmesi	-0.0775
-99.9990 öldürülürken	-0.0774
-99.9990 sekretaryası	-0.0773
-99.9990 akıl	-0.0776
-4.0313 yaşıyor	-0.0465
-99.9990 halkımızdan	-0.0774
-99.9990 umarım	-0.0765
-99.9990 ülkeden	-0.0774
-4.0313 ülkedir	-0.1950
-3.6333 açısından	-0.0721
-99.9990 dahilinde	-0.0465
-99.9990 barışının	-0.0775
-4.0313 başkaldıranların	-0.0647
-99.9990 amacı	-0.0776
-99.9990 tutulmasına	-0.0776
-99.9990 kimsesizler	-0.0776
-99.9990 namusunu	-0.0767
-99.9990 kandırdınız	-0.0465
-99.9990 üzerlerine	-0.0649
-99.9990 faaliyet	-0.0776
-3.2531 yerine	-0.0450
-4.0313 yerini	-0.0776
-99.9990 üniversitemizde	-0.0731
-3.1862 yusuf	-0.4159
-99.9990 ilişiğini	-0.0776
-99.9990 detayları	-0.0776
-99.9990 çorlu	-0.0776
-99.9990 camiayız	-0.0465
-99.9990 tanımlamanızı	-0.0773
-99.9990 osmanlıyı	-0.0776
-3.7303 derenin	-0.3263
-4.0313 almamız	-0.0772
-99.9990 itiliyor	-0.0665
-99.9990 deprem	-0.0776
-99.9990 kuruluşunu	-0.0776
-99.9990 içmiş	-0.0764
-99.9990 konumuna	-0.0776
-99.9990 konumunu	-0.0776
-99.9990 öğretim	-0.0776
-99.9990 öğretin	-0.0773
-99.9990 uğraşan	-0.0776
-3.7303 politikasının	-0.1452
-3.6333 yerinizden	-0.0992
-99.9990 atılmaz	-0.0776
-99.9990 umulanlarla	-0.0776
-4.0313 uygulanan	-0.0681
-99.9990 kıyımını	-0.0776
-99.9990 sütre	-0.0776
-99.9990 sunucu	-0.0774
-99.9990 çocuklarımız	-0.0771
-99.9990 başlamışlardır	-0.0465
-3.8552 onlara	-0.0775
-99.9990 bakanlığının	-0.0772
-2.8852 suriye	-0.1920
-99.9990 emrindeki	-0.0776
-3.4872 ermeni	-0.0663
-3.8552 inşa	-0.1705
-3.3781 olabilir	-0.2580
-99.9990 limanından	-0.0774
-3.7303 divanı	-0.1323
-4.0313 kürtlere	-0.0763
-99.9990 kaygıları	-0.0770
-99.9990 üreticilerimizin	-0.0776
-99.9990 militanları	-0.0771
-99.9990 denmesine	-0.0776
-99.9990 halaçoğluna	-0.0774
-3.4292 bakanı	-0.0604
-99.9990 hastanesinin	-0.0776
-3.8552 gündemine	-0.0775
-99.9990 üstünlüğü	-0.0771
-99.9990 öldürdüler	-0.0766
-99.9990 köyceğiz	-0.0772
-99.9990 sevkiyatının	-0.0776
-4.0313 tedbirlerini	-0.0774
-99.9990 travma	-0.0776
-99.9990 aylarında	-0.0776
-99.9990 kendiniz	-0.0731
-3.8552 savaşına	-0.1689
-99.9990 müslümanın	-0.0775
-99.9990 bizce	-0.0649
-99.9990 iskan	-0.0776
-2.9899 bizim	-0.0808
-99.9990 desteklenmesi	-0.0776
-99.9990 yürütmüş	-0.0767
-4.0313 ediyorlar	-0.1950
-4.0313 sunuyor	-0.0774
-3.7303 durumda	-0.0462
-99.9990 başbakana	-0.0776
-99.9990 oyuyla	-0.0775
-99.9990 teşvik	-0.0776
-99.9990 durumla	-0.0765
-3.7303 koşulları	-0.3228
-99.9990 kurulamamıştır	-0.0465
-99.9990 mhpyle	-0.0776
-99.9990 dönemden	-0.0769
-99.9990 girişimlerde	-0.0776
-99.9990 adamlarıdır	-0.0465
-3.8552 durumun	-0.0762
-99.9990 girişimlerin	-0.0776
-99.9990 paşazade	-0.0776
-99.9990 istenirse	-0.0776
-99.9990 yapmaktır	-0.0465
-99.9990 gidiyorsa	-0.0774
-99.9990 gidiyoruz	-0.0775
-99.9990 sirayet	-0.0775
-99.9990 görmesin	-0.0772
-99.9990 açıkladı	-0.0465
-99.9990 bahaneler	-0.0776
-99.9990 ittihat	-0.0776
-99.9990 küçük	-0.0776
-99.9990 konuşmasıyla	-0.0765
-99.9990 yaşanılan	-0.0774
-3.5542 islam	-0.0528
-99.9990 atama	-0.0776
-99.9990 düzenlendikten	-0.0769
-99.9990 engellemiyoruz	-0.0740
-99.9990 evladıfatihan	-0.0776
-3.8552 olmasın	-0.4248
-99.9990 önergelerin	-0.0774
-99.9990 komşularımızı	-0.0775
-99.9990 mezheplere	-0.0776
-99.9990 gerçi	-0.0769
-4.0313 kiminle	-0.2256
-3.7303 başkanvekili	-0.1288
-99.9990 binbaşı	-0.0776
-4.0313 anlayışı	-0.0767
-3.6333 temmuz	-0.4841
-4.0313 ilginç	-0.0454
-4.0313 herhalde	-0.0463
-3.2531 onüç	-0.1403
-99.9990 yaralanmıştır	-0.0465
-99.9990 dağına	-0.0776
-3.0770 sayısı	-0.2234
-99.9990 rotasını	-0.0775
-99.9990 dizlerinin	-0.0772
-4.0313 fayda	-0.0773
-3.8552 grubumuz	-0.4552
-99.9990 kayseri	-0.0770
-99.9990 zulmünü	-0.0770
-99.9990 anılarımı	-0.0776
-99.9990 nitelendiremezsiniz	-0.0776
-4.0313 arkasından	-0.0770
-99.9990 görüşlerini	-0.0775
-99.9990 gereksiz	-0.0776
-99.9990 refahın	-0.0776
-99.9990 çabalarla	-0.0764
-99.9990 infazlar	-0.0776
-99.9990 kitaplar	-0.0776
-3.8552 ismet	-0.0776
-4.0313 fındık	-0.0776
-3.8552 olayların	-0.0769
-99.9990 öldürülen	-0.0775
-99.9990 önünü	-0.0776
-99.9990 illaki	-0.0771
-99.9990 vermeyecek	-0.0771
-99.9990 haydaran	-0.0665
-4.0313 çizilirken	-0.0770
-99.9990 isteyeceğim	-0.0728
-99.9990 isteyeceğiz	-0.0465
-99.9990 halindeyse	-0.0774
-99.9990 vekilleri	-0.0776
-99.9990 faaliyetler	-0.0665
-3.8552 edecek	-0.0747
-99.9990 yetişebildim	-0.0765
-99.9990 esenliğinin	-0.0770
-99.9990 tartaklanması	-0.0776
-99.9990 düşmanlar	-0.0775
-4.0313 arayacağım	-0.1950
-4.0313 toplantıda	-0.0776
-99.9990 kırdıkları	-0.0766
-3.1562 istikrar	-0.4746
-3.6333 grubunun	-0.0728
-99.9990 grubunuz	-0.0776
-4.0313 ettiğimiz	-0.0681
-4.0313 sığınmak	-0.2258
-3.2909 fazla	-0.0873
-4.0313 getirilmiştir	-0.0417
-99.9990 aydınlatılamamıştır	-0.0775
-99.9990 okullara	-0.0776
-3.7303 yurt	-0.0763
-99.9990 sendikalı	-0.0775
-4.0313 toplantıya	-0.0774
-99.9990 doksanıncı	-0.0776
-99.9990 katiller	-0.0665
-4.0313 güzergahı	-0.0775
-99.9990 saate	-0.0764
-3.3781 saati	-0.9955
-99.9990 tırmanmakta	-0.0776
-99.9990 yetkililerce	-0.0776
-99.9990 yapabilseydik	-0.0465
-99.9990 değişikliği	-0.0775
-99.9990 getirdiğimiz	-0.0689
-3.4292 herhangi	-0.9415
-99.9990 gerçekler	-0.0764
-99.9990 mecburi	-0.0776
-99.9990 çalışmalarını	-0.0776
-99.9990 açıklamamı	-0.0775
-99.9990 yetkililerle	-0.0776
-4.0313 ağlamasın	-0.0461
-99.9990 dikkatle	-0.0774
-99.9990 hoybun	-0.0776
-99.9990 finansmanı	-0.0776
-99.9990 isyanını	-0.0774
-3.6333 fransız	-0.0662
-99.9990 kapısına	-0.0776
-99.9990 komşularımızda	-0.0665
-99.9990 unutturulmasına	-0.0665
-99.9990 soruyorum	-0.0772
-3.8552 komşularımızla	-0.0765
-99.9990 ettiğiniz	-0.0773
-99.9990 ünlü	-0.0776
-4.0313 köprü	-0.0776
-4.0313 anlayışla	-0.0771
-99.9990 sabit	-0.0775
-99.9990 malumlarıdır	-0.0465
-99.9990 kapatılmaya	-0.0776
-3.4292 baluken	-0.0935
-99.9990 yapıyorlar	-0.0769
-3.7303 sabri	-0.3264
-4.0313 çıkmıştır	-0.0372
-4.0313 sürecin	-0.0774
-99.9990 göstermişlerdir	-0.0465
-3.8552 huzuru	-0.1595
-99.9990 dilimi	-0.0772
-99.9990 etmelerini	-0.0665
-4.0313 üniversiteler	-0.0772
-99.9990 getirdiğiniz	-0.0776
-99.9990 topluma	-0.0776
-3.8552 tüzük	-0.0664
-99.9990 geçtik	-0.0465
-3.7303 önünde	-0.1455
-99.9990 araştırsın	-0.0773
-99.9990 büyükelçilik	-0.0776
-3.4872 kanunun	-0.1140
-99.9990 basılmış	-0.0756
-99.9990 adını	-0.0776
-99.9990 akrabalarımızı	-0.0774
-3.8552 ülkelerinin	-0.0766
-99.9990 asimilasyoncu	-0.0776
-99.9990 bitmedi	-0.0776
-99.9990 süredir	-0.0776
-99.9990 anlamalarını	-0.0775
-99.9990 sorunlarına	-0.0774
-3.3323 tarihinden	-1.0773
-3.8552 şunlar	-0.1691
-3.8552 güncel	-0.0770
-99.9990 ruhunda	-0.0772
-99.9990 oturacağız	-0.0776
-99.9990 anılarında	-0.0775
-99.9990 faillerin	-0.0776
-99.9990 yapmıyorsa	-0.0769
-3.3781 israil	-0.4074
-3.8552 katliamın	-0.0775
-99.9990 yapmıyoruz	-0.0465
-99.9990 arapların	-0.0740
-4.0313 sizlere	-0.0776
-3.8552 sizleri	-0.1706
-99.9990 toptaş	-0.0728
-99.9990 sunulması	-0.0775
-99.9990 sorununun	-0.0770
-3.6333 ülkeler	-0.1290
-99.9990 olduğumuzu	-0.0776
-99.9990 atfen	-0.0775
-4.0313 evlatlarını	-0.0774
-99.9990 sadir	-0.0776
-99.9990 babası	-0.0774
-99.9990 açıklamamda	-0.0776
-99.9990 karşılamanı	-0.0773
-99.9990 ilerisine	-0.0775
-99.9990 benzer	-0.0649
-3.7303 elbette	-0.0634
-4.0313 isyanında	-0.2259
-99.9990 beklentilerinin	-0.0776
-4.0313 unsurların	-0.0740
-99.9990 sabırla	-0.0689
-99.9990 getirilen	-0.0775
-99.9990 ettirebilecek	-0.0465
-3.4292 gündem	-0.3369
-99.9990 günden	-0.0774
-3.8552 belirlenmiştir	-0.4248
-99.9990 illere	-0.0773
-99.9990 elimizdeki	-0.0775
-99.9990 adımda	-0.0770
-4.0313 sabrımızı	-0.0776
-99.9990 şuraya	-0.0775
-4.0313 tuğrul	-0.2259
-99.9990 müdafaasız	-0.0776
-3.8552 diyorum	-0.1384
-4.0313 diyoruz	-0.0757
-99.9990 dersimden	-0.0776
-4.0313 diyorsunuz	-0.0454
-99.9990 idama	-0.0768
-99.9990 ülkemde	-0.0774
-99.9990 idame	-0.0776
-3.4292 geçen	-0.1079
-3.4872 buyurunuz	-0.9444
-99.9990 kalıyorum	-0.0774
-99.9990 geçin	-0.0689
-4.0313 elden	-0.0775
-4.0313 geçip	-0.0774
-3.7303 idare	-0.4310
-3.8552 idari	-0.0664
-3.2909 ülkemiz	-0.1373
-99.9990 getirmenizi	-0.0776
-99.9990 cümleyle	-0.0776
-99.9990 merkezde	-0.0773
-3.2909 dikkate	-0.1257
-4.0313 geçti	-0.0773
-99.9990 kullandığı	-0.0775
-99.9990 katliamı	-0.0775
-99.9990 asılıyordu	-0.0465
-99.9990 ciklet	-0.0767
-99.9990 kokunun	-0.0776
-4.0313 enstitüler	-0.0764
-99.9990 paşa	-0.0689
-99.9990 sessizliğe	-0.0665
-3.8552 kadınlar	-0.0775
-99.9990 temsil	-0.0775
-99.9990 vahametiyle	-0.0775
-99.9990 çanakkale	-0.0770
-3.7303 şümul	-0.4200
-99.9990 kuralım	-0.0465
-99.9990 çayır	-0.0775
-99.9990 adalete	-0.0775
-99.9990 faciayı	-0.0772
-4.0313 kaplan	-0.0717
-99.9990 mutabakatların	-0.0665
-99.9990 arızası	-0.0775
-4.0313 meclisten	-0.0774
-3.1282 milliyetçi	-1.2299
-99.9990 farklılık	-0.0764
-3.3781 ülkenin	-0.0916
-3.6333 ilişkin	-0.0642
-4.0313 olanların	-0.0772
-99.9990 yenilenmek	-0.0775
-99.9990 fıle	-0.0773
-3.6333 özçelik	-0.1291
-99.9990 edilmesine	-0.0775
-99.9990 tespitlerde	-0.0776
-99.9990 buluşması	-0.0774
-99.9990 merkezine	-0.0776
-99.9990 konuştuğunuzun	-0.0465
-99.9990 yersiz	-0.0775
-99.9990 safta	-0.0773
-4.0313 alınmadığı	-0.2240
-99.9990 izahat	-0.0776
-99.9990 sonrası	-0.0775
-3.6333 bakımdan	-0.0505
-3.6333 ışığında	-0.0656
-99.9990 laikliğiyle	-0.0776
-99.9990 nakledilmiştir	-0.0465
-99.9990 sürüklenmektedir	-0.0465
-3.5542 harekatı	-0.2261
-99.9990 erdirilmesi	-0.0665
-99.9990 aksamalar	-0.0773
-99.9990 çatışmasının	-0.0772
-4.0313 sataşmadan	-0.2258
-3.8552 kanının	-0.0775
-99.9990 saatlerinde	-0.0776
-4.0313 ortadan	-0.0776
-99.9990 gençlerden	-0.0776
-99.9990 pratik	-0.0775
-4.0313 varlık	-0.0776
-99.9990 istem	-0.0772
-4.0313 ister	-0.0771
-99.9990 çıkarak	-0.0774
-99.9990 çıkaran	-0.0665
-99.9990 atila	-0.0776
-99.9990 grubunuzdan	-0.0776
-4.0313 gereğinden	-0.2258
-4.0313 adamı	-0.0732
-99.9990 koruyarak	-0.0774
-99.9990 tesisleri	-0.0775
-99.9990 kanalizasyonu	-0.0776
-4.0313 katliamında	-0.2258
-99.9990 cumhuriyetin	-0.0774
-3.6333 vesile	-0.1306
-3.6333 biçimde	-0.2633
-99.9990 duyulmamalı	-0.0772
-99.9990 devamı	-0.0776
-99.9990 fiili	-0.0776
-99.9990 katliamla	-0.0775
-3.3781 lübnandaki	-0.2046
-3.6333 iddia	-0.0763
-4.0313 felaketinin	-0.0773
-99.9990 sıkıntısıyla	-0.0774
-99.9990 yekünu	-0.0776
-99.9990 düşürecektir	-0.0465
-99.9990 inönünün	-0.0776
-3.7303 kapsamlı	-0.3243
-99.9990 okullarının	-0.0776
-99.9990 değer	-0.0776
-3.2909 sahip	-0.1667
-2.7303 değil	-0.2114
-4.0313 kavgalı	-0.0774
-4.0313 felsefesi	-0.2240
-3.8552 şiddet	-0.1596
-99.9990 bünyesindeki	-0.0776
-4.0313 öncüpınar	-0.2259
-4.0313 başbakanımız	-0.0692
-99.9990 bulunduklarını	-0.0776
-99.9990 bildiği	-0.0776
-99.9990 değirmendereli	-0.0728
-99.9990 divanın	-0.0772
-99.9990 etkili	-0.0775
-4.0313 kullanılamaz	-0.2259
-99.9990 afrika	-0.0665
-99.9990 ediyordu	-0.0465
-4.0313 etkisi	-0.0772
-4.0313 yasaklanmış	-0.2256
-4.0313 bakanımızın	-0.0738
-3.8552 günkü	-0.0775
-99.9990 teşkilatından	-0.0771
-99.9990 esaslı	-0.0775
-99.9990 ediyorsa	-0.0775
-3.4292 adalet	-0.2059
-99.9990 bırakın	-0.0776
-99.9990 bırakıp	-0.0776
-2.6889 ediyorum	-0.6478
-3.2531 ediyoruz	-0.6700
-99.9990 uzaklaştırmak	-0.0776
-99.9990 fevri	-0.0776
-3.2184 unıfıle	-0.2385
-99.9990 görüşü	-0.0772
-99.9990 tahminlerine	-0.0772
-4.0313 elektronik	-0.0775
-3.8552 büyükşehir	-0.0776
-3.3781 oradaki	-0.0684
-99.9990 fevzi	-0.0776
-99.9990 büyükşehre	-0.0776
-99.9990 çözümler	-0.0776
-99.9990 taşırmasınlar	-0.0465
-99.9990 nabi	-0.0776
-99.9990 naim	-0.0775
-99.9990 harekatla	-0.0776
-99.9990 getirmesi	-0.0775
-99.9990 müdahalesi	-0.0776
-4.0313 gerektiği	-0.0664
-99.9990 geçeceğinden	-0.0776
-4.0313 zamanı	-0.0774
-99.9990 makamlarının	-0.0775
-3.2184 gerçekten	-0.1113
-4.0313 başarı	-0.0776
-99.9990 belediyesine	-0.0775
-99.9990 çıkmanız	-0.0776
-99.9990 fikir	-0.0776
-4.0313 edelim	-0.0464
-4.0313 tarihteki	-0.0767
-99.9990 onurlandırılan	-0.0728
-99.9990 belirlenemeyen	-0.0767
-99.9990 dersimliye	-0.0760
-99.9990 uzatılagelmiştir	-0.0465
-99.9990 üstatları	-0.0465
-99.9990 başkanlığa	-0.0776
-99.9990 dinlerin	-0.0776
-99.9990 örtülü	-0.0776
-99.9990 önlenebilir	-0.0665
-99.9990 günlü	-0.0775
-99.9990 ulaşabilir	-0.0465
-3.5542 birtakım	-0.0772
-99.9990 belirlemeliyiz	-0.0465
-99.9990 bulunulmuştur	-0.0465
-99.9990 eline	-0.0771
-99.9990 getirdiğimizde	-0.0774
-3.0101 içerisinde	-0.0594
-99.9990 gönderdi	-0.0775
-3.8552 belediyesi	-0.0763
-99.9990 gönderen	-0.0774
-99.9990 gerekliliğine	-0.0776
-99.9990 sürekli	-0.0756
-99.9990 suçlar	-0.0773
-3.8552 açıklamak	-0.4554
-99.9990 katledildi	-0.0465
-99.9990 gönderme	-0.0771
-99.9990 katledilen	-0.0764
-4.0313 sınamalar	-0.0769
-4.0313 unıfılde	-0.0752
-99.9990 mülkiye	-0.0776
-3.1019 unıfılin	-0.9223
-99.9990 tarihlerde	-0.0756
-3.0770 gücü	-0.1501
-4.0313 atatürkün	-0.0768
-99.9990 meşhur	-0.0649
-99.9990 fidanlardı	-0.0776
-99.9990 getirmiş	-0.0765
-3.6333 tutanaklara	-0.0775
-99.9990 anmayayım	-0.0775
-99.9990 menfaatlerimiz	-0.0769
-99.9990 sağlanacak	-0.0689
-4.0313 izlenmesi	-0.0774
-99.9990 saygılarımızla	-0.0773
-99.9990 atmak	-0.0465
-99.9990 sakat	-0.0649
-99.9990 nelerle	-0.0772
-99.9990 bağlanarak	-0.0775
-4.0313 yetmediği	-0.2240
-99.9990 sakin	-0.0649
-3.6333 denizlerin	-0.0775
-99.9990 getirilmemiştir	-0.0465
-99.9990 vazgeçmemesinden	-0.0776
-4.0313 müşterek	-0.0776
-99.9990 yaratmama	-0.0769
-3.3323 süresinin	-0.2109
-4.0313 dengeler	-0.2256
-99.9990 koymanız	-0.0772
-99.9990 olalım	-0.0764
-99.9990 götüren	-0.0776
-99.9990 sahiplerine	-0.0737
-99.9990 görüşme	-0.0776
-3.6333 ölçüde	-0.1302
-99.9990 şandır	-0.0767
-4.0313 birisidir	-0.1950
-3.8552 tedbirleri	-0.0776
-4.0313 salonda	-0.0775
-99.9990 sapları	-0.0773
-99.9990 düşündüğümde	-0.0775
-99.9990 yatırmış	-0.0776
-3.7303 budur	-0.2947
-99.9990 oluşturmanın	-0.0776
-99.9990 birlikleriyle	-0.0776
-99.9990 birleşimini	-0.0775
-99.9990 devamında	-0.0766
-99.9990 yönergesiyle	-0.0775
-2.9899 isyan	-0.0802
-99.9990 kurban	-0.0776
-99.9990 evladı	-0.0776
-3.5542 zamanda	-0.0725
-99.9990 gördünüz	-0.0776
-4.0313 oluşturulmuştur	-0.1950
-3.8552 değerlendirmek	-0.0774
-99.9990 dönümüdür	-0.0465
-99.9990 zamanki	-0.0776
-99.9990 yargılama	-0.0776
-4.0313 yaşanıyor	-0.1950
-99.9990 proaktif	-0.0776
-99.9990 sürdürdüler	-0.0465
-99.9990 şartlar	-0.0774
-99.9990 acısıdır	-0.0775
-99.9990 kitabından	-0.0776
-3.6333 içine	-0.0776
-99.9990 yansımalara	-0.0774
-99.9990 ıslahından	-0.0769
-1.1606 <s>	-0.2883
-99.9990 dermiş	-0.0465
-99.9990 kullanmasını	-0.0773
-99.9990 sükünetin	-0.0775
-4.0313 çıkıyor	-0.0765
-99.9990 gerçekte	-0.0765
-99.9990 katılmasını	-0.0772
-4.0313 başlayan	-0.0687
-4.0313 görevidir	-0.0448
-2.3411 için	-0.0677
-3.5542 toplantısında	-0.0677
-4.0313 tuhaf	-0.2133
-99.9990 almıyorlar	-0.0465
-99.9990 eksikliği	-0.0776
-99.9990 ticaretimiz	-0.0774
-4.0313 iletişim	-0.0756
-99.9990 uygulanacak	-0.0776
-3.8552 sürenin	-0.4556
-99.9990 öldürüyor	-0.0773
-4.0313 isyanların	-0.0771
-99.9990 barınamayarak	-0.0776
-3.8552 ortamı	-0.0769
-99.9990 iletiriz	-0.0728
-4.0313 islahiye	-0.0775
-99.9990 etmelisiniz	-0.0775
-99.9990 çocuklarını	-0.0773
-99.9990 kullanılarak	-0.0772
-4.0313 dönemsel	-0.2260
-99.9990 boyutlar	-0.0776
-99.9990 çakmak	-0.0740
-99.9990 neye	-0.0775
-99.9990 hatırlatmak	-0.0773
-99.9990 kurulunda	-0.0776
-4.0313 sınırlarında	-0.0766
-99.9990 görebilirler	-0.0775
-99.9990 halkımızı	-0.0665
-3.7303 kurulunun	-0.0614
-3.6333 sebep	-0.0763
-3.2184 katkı	-0.0769
-99.9990 ticaretinin	-0.0760
-3.2184 bölgede	-0.0825
-99.9990 sanki	-0.0767
-99.9990 yayılmış	-0.0649
-99.9990 metrekareye	-0.0744
-99.9990 eğitimlerini	-0.0776
-99.9990 maestro	-0.0776
-99.9990 bölgesi	-0.0756
-2.3455 dokuz	-0.7590
-99.9990 demeden	-0.0775
-99.9990 vatandaşlarına	-0.0760
-3.7303 ilişkilerimiz	-0.1443
-4.0313 açtığı	-0.0766
-99.9990 bakıyorlardı	-0.0770
-3.5542 bölgeye	-0.0769
-99.9990 çakılmıyor	-0.0465
-3.5542 edilmiştir	-0.2463
-4.0313 huzursuzluğun	-0.0774
-99.9990 avusturya	-0.0776
-3.7303 isyanı	-0.1449
-99.9990 verilmektedir	-0.0465
-3.5542 bakış	-0.2790
-3.6333 ilkeler	-0.3333
-99.9990 gürcistan	-0.0775
-99.9990 kaldırılmalıdır	-0.0465
-99.9990 meşrulaştırıyorsunuz	-0.0465
-4.0313 rızası	-0.0754
-99.9990 kışkırtmasını	-0.0776
-99.9990 ihanet	-0.0776
-99.9990 yirmişer	-0.0774
-99.9990 vermeyeceğim	-0.0465
-99.9990 oluşturulsaydı	-0.0766
-99.9990 vermeyerek	-0.0776
-3.8552 ilişkilerinin	-0.4558
-3.2909 barışı	-0.2033
-99.9990 yakalanamayan	-0.0776
-99.9990 malınız	-0.0776
-99.9990 özlediği	-0.0775
-99.9990 haksızlıklara	-0.0776
-4.0313 okumak	-0.0770
-3.8552 bakanının	-0.0675
-3.7303 ederek	-0.0767
-99.9990 kaynaklanan	-0.0665
-2.8272 ederim	-1.2586
-99.9990 ederiz	-0.0649
-99.9990 koymaktadır	-0.0465
-99.9990 macera	-0.0774
-99.9990 unlfılde	-0.0768
-99.9990 kürtlerin	-0.0737
-3.4872 unlfılin	-0.1009
-99.9990 sınavı	-0.0776
-3.6333 yapacak	-0.0632
-3.7303 ortamda	-0.1438
-99.9990 ölmekten	-0.0771
-99.9990 vekilliğinin	-0.0775
-99.9990 paylaşarak	-0.0774
-4.0313 batıya	-0.2258
-99.9990 refleksle	-0.0776
-3.8552 bölüğümüz	-0.0739
-3.8552 yolluyor	-0.0771
-4.0313 bilgiler	-0.0731
-99.9990 mürettep	-0.0776
-99.9990 içmek	-0.0771
-3.5542 ışid	-0.1100
-99.9990 tunç	-0.0776
-99.9990 şunlarmış	-0.0465
-99.9990 yosuna	-0.0776
-99.9990 devamlılıklarının	-0.0776
-99.9990 basmacıyan	-0.0776
-4.0313 istiyorsunuz	-0.0774
-99.9990 içi	-0.0775
-4.0313 ihale	-0.0773
-99.9990 yegane	-0.0776
-99.9990 firma	-0.0776
-99.9990 gönderdiklerini	-0.0776
-99.9990 gözetmeksizin	-0.0770
-99.9990 binler	-0.0774
-3.8552 bakmak	-0.0769
-99.9990 başkonsolosluğuna	-0.0776
-99.9990 tezleriyle	-0.0689
-99.9990 saygısızlığın	-0.0772
-3.5542 tezkere	-0.1120
-4.0313 ülkeyiz	-0.0688
-99.9990 ülkeyle	-0.0689
-4.0313 dershane	-0.0776
-99.9990 muhatabı	-0.0760
-99.9990 kalabalık	-0.0649
-99.9990 peşi	-0.0775
-99.9990 açılımı	-0.0776
-99.9990 konuşlu	-0.0771
-99.9990 kaynakları	-0.0776
-3.4872 konuşma	-0.0766
-99.9990 geçirdikleri	-0.0775
-4.0313 erzurumu	-0.0665
-99.9990 binasına	-0.0776
-99.9990 demezseniz	-0.0689
-99.9990 gencimizin	-0.0776
-99.9990 isyanda	-0.0774
-99.9990 beşini	-0.0689
-3.8552 konuşun	-0.0453
-99.9990 mantığı	-0.0665
-4.0313 üniversite	-0.0776
-99.9990 aşılanmasındaki	-0.0775
-3.1282 istiyorum	-0.5629
-3.4292 istiyoruz	-0.9689
-4.0313 kelime	-0.0775
-99.9990 misafir	-0.0776
-4.0313 ihbar	-0.2256
-99.9990 almışlardır	-0.0465
-99.9990 roboskiden	-0.0776
-4.0313 çıkış	-0.0776
-3.8552 baskısı	-0.1559
-3.4292 niye	-0.1005
-99.9990 çalışılmaktadır	-0.0465
-99.9990 selahattin	-0.0776
-99.9990 katkılarımız	-0.0774
-99.9990 lojman	-0.0665
-99.9990 müttefiklerimiz	-0.0774
-4.0313 hücumbot	-0.0766
-99.9990 vurgulanmaktadır	-0.0465
-99.9990 ilkesinden	-0.0771
-99.9990 destekliyoruz	-0.0465
-99.9990 adımları	-0.0774
-3.5542 bölgemizde	-0.1688
-99.9990 dostluk	-0.0665
-99.9990 düzenlediği	-0.0775
-3.8552 bölgemizin	-0.1697
-99.9990 barışla	-0.0776
-99.9990 anlamalı	-0.0665
-99.9990 etkilerin	-0.0775
-99.9990 etkilerle	-0.0776
-99.9990 sağduyulu	-0.0776
-99.9990 torlak	-0.0775
-99.9990 reddederek	-0.0773
-4.0313 başlıklı	-0.0775
-4.0313 işe	-0.0774
-3.4872 işi	-0.0743
-3.6333 katliamıyla	-0.3326
-99.9990 kültür	-0.0776
-4.0313 üzerindeki	-0.0775
-3.7303 dayanışma	-0.0660
-99.9990 görülecektir	-0.0465
-3.6333 önümüzdeki	-0.1304
-2.6247 değerli	-0.9451
-4.0313 polemiğe	-0.0776
-99.9990 edemedim	-0.0465
-4.0313 kıyasla	-0.2260
-99.9990 ırzını	-0.0776
-99.9990 maddelerine	-0.0774
-3.8552 hukuka	-0.0775
-99.9990 hukuki	-0.0775
-99.9990 hukuku	-0.0776
-99.9990 düşüncesiyle	-0.0689
-99.9990 sözüm	-0.0649
-99.9990 sözün	-0.0775
-4.0313 uluderede	-0.0761
-99.9990 itibarı	-0.0775
-99.9990 inancı	-0.0774
-99.9990 uludereli	-0.0775
-99.9990 yürekliler	-0.0773
-99.9990 seçimleri	-0.0776
-99.9990 sokulmasında	-0.0774
-3.8552 sağladığı	-0.1700
-99.9990 rotaya	-0.0776
-4.0313 oturan	-0.0776
-99.9990 fazladır	-0.0465
-99.9990 kadınlara	-0.0776
-99.9990 sason	-0.0775
-99.9990 ezidinin	-0.0737
-99.9990 diktatör	-0.0776
-99.9990 eşkıyaların	-0.0776
-99.9990 umutlu	-0.0769
-99.9990 kafanıza	-0.0772
-3.8552 asıl	-0.0772
-99.9990 asır	-0.0775
-4.0313 düşmektedir	-0.1950
-99.9990 kamilen	-0.0775
-3.6333 oturum	-0.4869
-99.9990 istismar	-0.0773
-99.9990 bulan	-0.0776
-99.9990 açıklamış	-0.0767
-99.9990 ortaklaşmaların	-0.0775
-4.0313 baktığımızda	-0.0768
-3.7303 aşiret	-0.0574
-99.9990 yapılır	-0.0665
-4.0313 belirlenmiş	-0.0648
-99.9990 bulma	-0.0774
-3.7303 gezmiş	-0.1337
-99.9990 valimizle	-0.0665
-99.9990 demişti	-0.0465
-99.9990 sağladığını	-0.0776
-99.9990 görmenizi	-0.0773
-99.9990 söyledikten	-0.0769
-3.5542 insanların	-0.0767
-99.9990 attığını	-0.0776
-99.9990 azabı	-0.0776
-99.9990 milletvekillerimizin	-0.0775
-3.6333 ülkede	-0.1299
-3.8552 tayyip	-0.1707
-99.9990 kazanç	-0.0775
-99.9990 ülkeye	-0.0773
-99.9990 ülkeyi	-0.0737
-99.9990 edeceksin	-0.0760
-99.9990 öldürseler	-0.0775
-4.0313 birden	-0.0775
-99.9990 belirtmiştir	-0.0465
-99.9990 yönetilmektedir	-0.0665
-99.9990 inceletelim	-0.0775
-99.9990 kullanmıştır	-0.0465
-99.9990 alabilecek	-0.0776
-99.9990 evinde	-0.0774
-99.9990 edileceklerin	-0.0774
-99.9990 soruşturmayla	-0.0775
-4.0313 italyan	-0.0665
-99.9990 itmiştir	-0.0465
-99.9990 yapılırken	-0.0775
-3.5542 felaketi	-0.0767
-99.9990 rızayı	-0.0774
-99.9990 istenmeyen	-0.0776
-99.9990 yapısını	-0.0774
-99.9990 tanımlıyoruz	-0.0649
-3.8552 hareketle	-0.0768
-99.9990 oluşturduğunuz	-0.0774
-99.9990 raporlarından	-0.0775
-99.9990 zehirlendi	-0.0665
-99.9990 muamele	-0.0776
-4.0313 valisi	-0.0774
-99.9990 afganistan	-0.0776
-3.1282 yaptığı	-0.1602
-99.9990 edildi	-0.0465
-3.1862 edilen	-0.1965
-3.1019 itibaren	-0.3156
-99.9990 konuşulmaya	-0.0775
-99.9990 oluşturacak	-0.0776
-4.0313 çintay	-0.0775
-99.9990 edecektir	-0.0465
-4.0313 edilir	-0.1950
-99.9990 brezilyalıymış	-0.0665
-4.0313 vücutları	-0.0776
-99.9990 müdürlüğünün	-0.0776
-3.3323 günü	-0.0717
-4.0313 itibarla	-0.0770
-3.4292 gereği	-0.2170
-99.9990 idrak	-0.0775
-3.8552 yapılmaktadır	-0.1392
-99.9990 bunda	-0.0768
-99.9990 başlattığımız	-0.0776
-3.7303 idris	-0.3263
-4.0313 ilkesel	-0.0755
-3.0536 üzerine	-0.0746
-99.9990 anlaşılacağı	-0.0767
-99.9990 teknolojik	-0.0776
-2.9344 bunun	-0.0846
-99.9990 gerçekliktir	-0.0465
-99.9990 buğday	-0.0776
-4.0313 gerekçelere	-0.2260
-99.9990 istikrarsızlıklarının	-0.0775
-99.9990 geleceğini	-0.0776
-99.9990 güler	-0.0774
-99.9990 batıdaki	-0.0776
-99.9990 dünyayı	-0.0776
-99.9990 durduralım	-0.0774
-3.5542 askerin	-0.1214
-99.9990 desteklediğimizi	-0.0776
-99.9990 bulunmadığından	-0.0771
-99.9990 alıyormuş	-0.0776
-99.9990 çevrede	-0.0776
-99.9990 duygusunu	-0.0776
-99.9990 ilhanın	-0.0776
-99.9990 beklenen	-0.0775
-99.9990 federasyonunun	-0.0776
-99.9990 güvenliğe	-0.0776
-3.4872 güvenliği	-0.0659
-99.9990 tezkeresini	-0.0773
-99.9990 mutlak	-0.0776
-4.0313 karşılıyorum	-0.0665
-99.9990 çevresi	-0.0649
-99.9990 sayı	-0.0764
-99.9990 moldovaya	-0.0775
-99.9990 allaha	-0.0756
-4.0313 yaptığını	-0.0740
-99.9990 ağızlarını	-0.0649
-99.9990 edeyim	-0.0465
-3.1562 değildir	-0.3453
-99.9990 ekmeği	-0.0665
-99.9990 arayışla	-0.0765
-99.9990 katkımız	-0.0746
-99.9990 tahminleriyle	-0.0771
-99.9990 asılan	-0.0649
-4.0313 boyutuna	-0.0775
-99.9990 göreviniz	-0.0764
-99.9990 yapmayın	-0.0465
-3.5542 okutup	-0.2900
-99.9990 bölgesine	-0.0776
-99.9990 turan	-0.0771
-99.9990 şad	-0.0773
-2.6163 sekiz	-0.3281
-3.2909 tezkeresi	-0.2287
-2.8852 şey	-0.0674
-99.9990 yunanistanda	-0.0776
-99.9990 kurmay	-0.0776
-99.9990 faaliyetinin	-0.0772
-4.0313 şii	-0.2259
-99.9990 tezkereye	-0.0773
-99.9990 tezkereyi	-0.0775
-3.8552 coğrafya	-0.0776
-99.9990 teröre	-0.0776
-99.9990 tasarı	-0.0665
-99.9990 göstermesine	-0.0769
-4.0313 anlamı	-0.0762
-99.9990 noel	-0.0737
-99.9990 girişi	-0.0771
-99.9990 isimlerinde	-0.0665
-99.9990 yatırılmıştı	-0.0465
-99.9990 gömülmüştür	-0.0465
-99.9990 edince	-0.0774
-99.9990 haklarının	-0.0775
-99.9990 masrafların	-0.0775
-99.9990 köroğluları	-0.0775
-99.9990 gürkut	-0.0776
-99.9990 askıya	-0.0776
-99.9990 inönü	-0.0776
-99.9990 koalisyon	-0.0772
-99.9990 mısıra	-0.0768
-3.6333 düşen	-0.1216
-99.9990 rızayla	-0.0765
-4.0313 aşağıdaki	-0.0775
-99.9990 taşıdır	-0.0775
-99.9990 yontarlardı	-0.0776
-4.0313 azından	-0.0776
-99.9990 selim	-0.0776
-99.9990 selin	-0.0776
-99.9990 müsteşarı	-0.0665
-99.9990 etkililik	-0.0776
-99.9990 günde	-0.0665
-99.9990 güner	-0.0665
-3.8552 güney	-0.1705
-99.9990 reddedildi	-0.0465
-99.9990 brezilya	-0.0776
-99.9990 dsiye	-0.0775
-99.9990 demenan	-0.0776
-99.9990 süreyle	-0.0773
-99.9990 değildi	-0.0465
-99.9990 kurma	-0.0776
-3.5542 rahmet	-0.0772
-99.9990 maddeler	-0.0771
-4.0313 değilim	-0.0372
-4.0313 yürekliydiler	-0.0465
-3.8552 değiliz	-0.0414
-3.6333 vatandaşlarımızın	-0.0710
-4.0313 süreyya	-0.2259
-99.9990 kurup	-0.0776
-99.9990 zehirlemeler	-0.0775
-4.0313 değilse	-0.0752
-4.0313 gerçekleriyle	-0.0648
-99.9990 verilmez	-0.0766
-3.4292 harekat	-0.1077
-3.8552 zeminde	-0.0771
-99.9990 çökertildiğini	-0.0775
-2.9010 hareket	-0.4989
-4.0313 davası	-0.0628
-4.0313 yürütmeliyiz	-0.1950
-99.9990 destekleme	-0.0776
-99.9990 bulmadığı	-0.0776
-99.9990 destekleri	-0.0665
-99.9990 sömürmeye	-0.0773
-99.9990 yüzyıldan	-0.0773
-4.0313 katılmıştır	-0.0664
-99.9990 hırvatistan	-0.0776
-3.8552 bingöl	-0.1701
-4.0313 topraklarında	-0.0760
-99.9990 tutum	-0.0776
-99.9990 huduttan	-0.0776
-3.6333 başına	-0.0658
-99.9990 deyişler	-0.0776
-99.9990 anlamsız	-0.0776
-99.9990 çarpışıyorsanız	-0.0776
-99.9990 çözümüne	-0.0665
-99.9990 buran	-0.0774
-99.9990 yasada	-0.0756
-99.9990 tarihlerinde	-0.0776
-99.9990 valiliklere	-0.0776
-4.0313 faaliyetlerimizin	-0.0768
-99.9990 gidilmektedir	-0.0465
-3.7303 yasama	-0.1454
-99.9990 anlamak	-0.0773
-99.9990 anlatıyordu	-0.0465
-99.9990 başladılar	-0.0465
-99.9990 görmüyorum	-0.0465
-4.0313 halaçoğlunun	-0.2254
-3.7303 anlamda	-0.0752
-3.8552 birisi	-0.0443
-3.6333 kontrol	-0.1296
-99.9990 dışlanmış	-0.0649
-99.9990 güçlerinin	-0.0776
-99.9990 aleyhine	-0.0776
-3.8552 denizler	-0.0734
-99.9990 gerçekleri	-0.0771
-99.9990 tasviplerine	-0.0775
-4.0313 kurulmuştur	-0.1950
-99.9990 libyadaki	-0.0776
-99.9990 gerekirse	-0.0774
-99.9990 baskıyla	-0.0775
-99.9990 bekleriz	-0.0775
-99.9990 yapamazken	-0.0776
-99.9990 kutlu	-0.0774
-99.9990 mayısta	-0.0776
-4.0313 hayatlarını	-0.0776
-99.9990 görenler	-0.0775
-99.9990 desteklemiştik	-0.0766
-3.7303 önceki	-0.0773
-99.9990 maddenin	-0.0774
-99.9990 askerlerimizin	-0.0775
-99.9990 kararınızı	-0.0649
-99.9990 geziyor	-0.0465
-99.9990 öncesi	-0.0776
-99.9990 gerçekleşecek	-0.0776
-99.9990 kasım	-0.0746
-99.9990 görebildiği	-0.0665
-99.9990 ifadesiyle	-0.0773
-3.8552 sıradan	-0.4432
-99.9990 kadirle	-0.0773
-99.9990 bakmayın	-0.0776
-99.9990 kestiler	-0.0465
-3.8552 istihbarat	-0.0769
-99.9990 çalışmalarının	-0.0776
-99.9990 prensip	-0.0773
-99.9990 yönelttiği	-0.0776
-4.0313 çocuklarıyla	-0.0765
-99.9990 bakanın	-0.0774
-99.9990 cehennem	-0.0776
-3.8552 göstergesidir	-0.4248
-99.9990 ihlal	-0.0771
-4.0313 maddeleri	-0.2259
-99.9990 erzincanı	-0.0773
-99.9990 otuzun	-0.0775
-99.9990 okuyan	-0.0776
-99.9990 edirne	-0.0776
-99.9990 sınıra	-0.0776
-4.0313 yetkililerine	-0.0776
-99.9990 koymaları	-0.0774
-99.9990 yaratılmıştır	-0.0465
-99.9990 tartışılsın	-0.0776
-2.8138 adına	-0.1118
-3.2909 bulunmaktadır	-1.1253
-4.0313 çalışılan	-0.2133
-99.9990 sonuçta	-0.0649
-4.0313 haksızlıklar	-0.0775
-99.9990 gürer	-0.0776
-99.9990 yollayarak	-0.0776
-99.9990 muğla	-0.0770
-4.0313 sıfatıyla	-0.0685
-99.9990 ikinize	-0.0737
-99.9990 yurtları	-0.0776
-99.9990 gönderilmez	-0.0774
-99.9990 faaliyetlerinde	-0.0776
-99.9990 çamaşırını	-0.0776
-99.9990 üretilmeye	-0.0775
-3.2184 birçok	-0.0960
-99.9990 ilave	-0.0756
-4.0313 birlik	-0.0776
-99.9990 metotları	-0.0775
-99.9990 anlatmalarıyla	-0.0772
-99.9990 kışkırtmasıyla	-0.0774
-99.9990 bağlamındaki	-0.0776
-99.9990 dökülerek	-0.0776
-99.9990 kalmalarını	-0.0776
-99.9990 sorarsın	-0.0465
-99.9990 çoğaltmak	-0.0773
-99.9990 mecraya	-0.0776
-3.5542 rica	-0.3854
-99.9990 kütükleriyle	-0.0776
-4.0313 patlayıcı	-0.0665
-99.9990 ettiğimizden	-0.0760
-99.9990 direnişe	-0.0768
-99.9990 kamuoyunun	-0.0740
-3.4292 risk	-0.2062
-99.9990 olanaklarının	-0.0776
-4.0313 evvelden	-0.0775
-99.9990 getirilebilecektir	-0.0465
-99.9990 resmileştirmek	-0.0769
-99.9990 nuri	-0.0776
-3.7303 yapsın	-0.1132
-99.9990 osmanlılardan	-0.0776
-99.9990 tartışıp	-0.0773
-3.6333 dokuzuncu	-0.0767
-3.5542 hayata	-0.0776
-4.0313 hayati	-0.0776
-4.0313 vaziyette	-0.0465
-99.9990 mikrofona	-0.0775
-99.9990 küreklerle	-0.0775
-4.0313 ingiltere	-0.0775
-99.9990 mesajı	-0.0740
-4.0313 söylüyor	-0.0461
-4.0313 bayramiç	-0.0775
-99.9990 dayanmış	-0.0775
-99.9990 dikkatine	-0.0774
-99.9990 oluşturmaktadır	-0.0465
-99.9990 komiserliğinin	-0.0776
-99.9990 aktardığı	-0.0649
-2.3638 başkan	-0.5077
-99.9990 noktasındaydı	-0.0465
-2.7413 karşı	-0.0781
-99.9990 konuşmacılar	-0.0773
-99.9990 ürünüdür	-0.0465
-99.9990 aidat	-0.0776
-99.9990 yürütsün	-0.0465
-99.9990 karartılmasına	-0.0775
-99.9990 yerlerini	-0.0774
-99.9990 uğruna	-0.0776
-4.0313 belirtilmiştir	-0.1950
-99.9990 çıkarmıyorsunuz	-0.0465
-99.9990 özetlenen	-0.0649
-99.9990 düzenlenmiştir	-0.0465
-99.9990 samanlıklarda	-0.0776
-3.7303 farklı	-0.0775
-99.9990 yaparak	-0.0649
-4.0313 omurgasızlık	-0.0770
-99.9990 cevaptır	-0.0465
-3.8552 tuzla	-0.4558
-3.8552 katılım	-0.0775
-99.9990 katılıp	-0.0776
-99.9990 kalkıp	-0.0689
-99.9990 atanmıştır	-0.0465
-99.9990 tavrınızın	-0.0776
-3.5542 sıra	-0.0760
-99.9990 peşkeş	-0.0776
-3.8552 kurula	-0.0465
-2.9899 kurulu	-0.1062
-3.1562 mümkün	-0.2111
-99.9990 kuruma	-0.0776
-3.5542 kurumu	-0.2896
-4.0313 görüştük	-0.0776
-99.9990 bağlandığı	-0.0776
-3.6333 ölüm	-0.1293
-99.9990 ölür	-0.0465
-99.9990 ilden	-0.0776
-99.9990 gazetesi	-0.0775
-99.9990 elenmiştir	-0.0465
-99.9990 inanmak	-0.0773
-4.0313 tırların	-0.0771
-99.9990 tecavüze	-0.0776
-99.9990 saitin	-0.0775
-3.8552 unsurları	-0.0737
-99.9990 ihraçlarına	-0.0776
-99.9990 üstlendiği	-0.0689
-3.2531 maalesef	-0.0954
-99.9990 sizsiniz	-0.0465
-99.9990 iltica	-0.0776
-4.0313 coğrafyamızda	-0.2251
-99.9990 alınmasına	-0.0775
-99.9990 polemiklere	-0.0775
-3.7303 güven	-0.0656
-99.9990 yunanistandaki	-0.0773
-99.9990 tarımla	-0.0776
-99.9990 etkinliklerin	-0.0775
-99.9990 anayasasına	-0.0665
-4.0313 kuzey	-0.0776
-4.0313 yaşamasına	-0.0773
-4.0313 baskın	-0.0776
-99.9990 havadan	-0.0776
-3.8552 çağlayangil	-0.0640
-4.0313 gelmez	-0.0772
-99.9990 liderler	-0.0773
-99.9990 aydınlanmasına	-0.0773
-99.9990 düşüncelerinden	-0.0775
-99.9990 temsiliyle	-0.0764
-99.9990 kolaylıkların	-0.0775
-3.5542 hocam	-0.0745
-99.9990 katılımı	-0.0776
-3.8552 ileri	-0.0773
-99.9990 haydar	-0.0776
-99.9990 etmesinin	-0.0765
-99.9990 talihsizlik	-0.0756
-99.9990 samimi	-0.0776
-99.9990 yürekler	-0.0776
-99.9990 atıldığını	-0.0774
-99.9990 yadırgadım	-0.0465
-4.0313 konuşalım	-0.0463
-3.8552 ağır	-0.0649
-99.9990 ağıt	-0.0776
-99.9990 defnederek	-0.0776
-4.0313 görülmektedir	-0.1950
-99.9990 üzülerek	-0.0775
-99.9990 isteklerimiz	-0.0775
-3.8552 vaka	-0.0769
-3.2531 sırasında	-0.0969
-3.7303 vali	-0.4200
-99.9990 nitelersin	-0.0465
-3.3781 gerekiyor	-1.0454
-3.8552 bekleyen	-0.0758
-2.9010 üzere	-0.0693
-99.9990 daeşin	-0.0769
-99.9990 bekaroğlunun	-0.0776
-3.8552 çocuklar	-0.0767
-99.9990 ulaşlılar	-0.0776
-99.9990 yanımızda	-0.0774
-99.9990 başvurular	-0.0776
-99.9990 göreviyle	-0.0776
-99.9990 temyizine	-0.0772
-4.0313 sevgi	-0.2149
-99.9990 görmelerini	-0.0665
-3.5542 olmaktadır	-0.3547
-99.9990 öngörülen	-0.0776
-99.9990 sevke	-0.0775
-99.9990 sevki	-0.0774
-99.9990 yolundan	-0.0776
-99.9990 düşünülüyorsa	-0.0760
-99.9990 olmalıyız	-0.0689
-99.9990 yanıt	-0.0776
-99.9990 isyanının	-0.0776
-3.8552 kişilik	-0.1579
-99.9990 olabilecektir	-0.0465
-3.8552 yapılmıyor	-0.0460
-99.9990 sıralarına	-0.0774
-99.9990 yapmıyorsunuz	-0.0775
-3.7303 cümle	-0.0327
-99.9990 başa	-0.0776
-99.9990 mağaralara	-0.0776
-99.9990 amacının	-0.0649
-99.9990 subaylarının	-0.0773
-99.9990 düğmelerine	-0.0776
-99.9990 papazyan	-0.0776
-3.5542 giderilmesi	-0.0744
-3.4872 ihsan	-0.2439
-99.9990 koyarız	-0.0465
-3.3323 ediyor	-0.2032
-4.0313 gönderilmiş	-0.0775
-2.9521 diğer	-0.1184
-99.9990 gitmeden	-0.0776
-99.9990 insanlarınızın	-0.0772
-99.9990 desteğe	-0.0776
-99.9990 yapısıyla	-0.0775
-99.9990 adaletli	-0.0776
-99.9990 tecziye	-0.0774
-3.7303 birleşime	-0.4306
-3.5542 olmuştur	-0.2474
-3.8552 feodal	-0.1579
-99.9990 gücüyle	-0.0776
-99.9990 tören	-0.0776
-99.9990 yaparım	-0.0465
-99.9990 hafızın	-0.0776
-99.9990 ilhan	-0.0774
-3.1562 bölgedeki	-0.1277
-99.9990 demeyin	-0.0776
-4.0313 bülent	-0.0776
-99.9990 dediler	-0.0465
-3.4872 mevcut	-0.1130
-3.4292 etkin	-0.1715
-4.0313 malzemenin	-0.2252
-99.9990 iletişimi	-0.0776
-2.9706 silah	-0.1674
-99.9990 tırmanmaya	-0.0776
-4.0313 olmadı	-0.0458
-99.9990 bildirildiği	-0.0756
-4.0313 mensupsanız	-0.0760
-99.9990 saygınlığını	-0.0775
-99.9990 uygulanmıyor	-0.0465
-99.9990 kaldırımlar	-0.0776
-99.9990 müdahalenin	-0.0776
-3.6333 adım	-0.0756
-99.9990 hdpnin	-0.0776
-99.9990 demesi	-0.0774
-4.0313 toplanan	-0.0776
-99.9990 dolaşın	-0.0767
-4.0313 baskı	-0.2260
-99.9990 yitirdik	-0.0465
-99.9990 ibretle	-0.0776
-3.5542 güzel	-0.0663
-99.9990 bataklığında	-0.0776
-3.4292 kişinin	-0.0769
-99.9990 tecrübesinin	-0.0774
-4.0313 kullanılmalıdır	-0.1950
-4.0313 milletimiz	-0.0755
-99.9990 bahsediyor	-0.0465
-99.9990 doğrusunu	-0.0776
-99.9990 tarafa	-0.0775
-99.9990 olmasının	-0.0774
-99.9990 halaçoğluyla	-0.0772
-3.7303 emniyet	-0.2254
-99.9990 periyotlarında	-0.0649
-99.9990 imkanımız	-0.0769
-4.0313 yetmişe	-0.0759
-99.9990 gelerek	-0.0776
-4.0313 ruslara	-0.0641
-99.9990 seyir	-0.0776
-2.9706 seyit	-0.5931
-99.9990 yaşamasını	-0.0776
-99.9990 çıkarılıyor	-0.0775
-99.9990 vatana	-0.0776
-99.9990 anıtına	-0.0776
-99.9990 veli	-0.0776
-99.9990 felcinin	-0.0774
-4.0313 demiş	-0.0346
-99.9990 tartışmanın	-0.0775
-99.9990 göstereceğiz	-0.0465
-99.9990 ilerlemesi	-0.0776
-99.9990 arkadaşlarımıza	-0.0740
-99.9990 ihtimal	-0.0774
-3.0770 veya	-0.0892
-99.9990 makedonyada	-0.0773
-4.0313 izlemektedir	-0.1950
-99.9990 peşmerge	-0.0776
-99.9990 verildiği	-0.0776
-3.8552 sürmektedir	-0.4248
-2.9173 etmek	-0.1306
-99.9990 etmez	-0.0775
-99.9990 eleştiriler	-0.0771
-4.0313 değilsin	-0.0453
-99.9990 kocasız	-0.0775
-3.7303 olaylar	-0.0771
-99.9990 ormanından	-0.0776
-4.0313 kaydıyla	-0.0665
-99.9990 krizinden	-0.0773
-99.9990 moskovada	-0.0776
-99.9990 dediğinizi	-0.0776
-99.9990 suları	-0.0665
-99.9990 başvurdum	-0.0771
-99.9990 olmadan	-0.0776
-99.9990 arkadaşları	-0.0465
-99.9990 dışarı	-0.0776
-99.9990 fiziki	-0.0770
-99.9990 uzunca	-0.0776
-4.0313 konutlarının	-0.0775
-99.9990 sorumluların	-0.0689
-3.8552 gümüş	-0.0775
-99.9990 perspektif	-0.0772
-99.9990 doğranmakta	-0.0465
-3.8552 saldırıyı	-0.0776
-4.0313 açmak	-0.0771
-4.0313 zorundalar	-0.0464
-3.8552 etnik	-0.4448
-99.9990 hükümetlerini	-0.0776
-99.9990 harekatlarına	-0.0774
-3.6333 verilmesi	-0.0640
-99.9990 yılını	-0.0776
-99.9990 karmaşaya	-0.0771
-3.5542 önerisinin	-0.1210
-99.9990 dokuzuncusunu	-0.0776
-3.8552 dediğimiz	-0.0774
-99.9990 kurultayı	-0.0774
-99.9990 kendinize	-0.0649
-3.8552 önemlidir	-0.1393
-4.0313 limanı	-0.0776
-3.1282 mayıs	-0.1915
-99.9990 dönüşüyle	-0.0776
-99.9990 yapılmıştır	-0.0465
-99.9990 dönüşüyor	-0.0771
-99.9990 koyduğumuz	-0.0775
-4.0313 hazırlık	-0.0774
-99.9990 görüştüğümüzde	-0.0768
-99.9990 fıkrasında	-0.0740
-3.6333 kullanılan	-0.1181
-3.2184 suriyedeki	-0.1618
-99.9990 amaca	-0.0775
-99.9990 kutluyor	-0.0776
-4.0313 uzman	-0.2260
-99.9990 görünmüyor	-0.0465
-99.9990 iller	-0.0776
-4.0313 harekata	-0.0774
-99.9990 ulaşması	-0.0776
-99.9990 faaliyetleriyle	-0.0731
-4.0313 göstererek	-0.0772
-99.9990 katılmasına	-0.0775
-99.9990 içiliyor	-0.0465
-99.9990 usulümüz	-0.0769
-3.8552 mersin	-0.0776
-99.9990 yoldan	-0.0776
-3.1862 hiçbir	-0.1540
-3.8552 anlamına	-0.1704
-99.9990 bürokratlarımızla	-0.0773
-99.9990 yaratıcı	-0.0665
-3.4872 yüksek	-0.0776
-4.0313 yüksel	-0.0766
-3.8552 verilmiş	-0.0517
-3.7303 dediğiniz	-0.1445
-99.9990 önerisini	-0.0776
-99.9990 mesafede	-0.0776
-99.9990 kullanılmakta	-0.0776
-99.9990 hepsine	-0.0776
-3.6333 hepsini	-0.0772
-4.0313 konuşmuyorsunuz	-0.0448
-4.0313 eskiden	-0.0769
-99.9990 çiftlik	-0.0737
-99.9990 toplarla	-0.0774
-99.9990 kamuoyuyla	-0.0776
-99.9990 insanlarımıza	-0.0775
-99.9990 demirci	-0.0775
-99.9990 terörün	-0.0776
-99.9990 kapısında	-0.0770
-4.0313 karşılanması	-0.0774
-99.9990 davetse	-0.0689
-99.9990 çabalar	-0.0774
-99.9990 kıymeti	-0.0776
-99.9990 halledeyim	-0.0728
-99.9990 bulunarak	-0.0775
-4.0313 çıktığını	-0.0774
-99.9990 kürtlermiş	-0.0772
-99.9990 evlerin	-0.0776
-99.9990 ucuza	-0.0776
-99.9990 sahipleri	-0.0775
-4.0313 kuvvetler	-0.0775
-4.0313 pkklı	-0.0763
-99.9990 yazmış	-0.0776
-99.9990 armağan	-0.0775
-4.0313 acılarından	-0.2260
-99.9990 atamalar	-0.0775
-99.9990 genişledi	-0.0665
-99.9990 güneşiyle	-0.0731
-99.9990 himayemiz	-0.0774
-3.8552 başlandı	-0.0676
-3.7303 hükümetçe	-0.4310
-99.9990 savaşında	-0.0776
-99.9990 genişleme	-0.0775
-99.9990 havasıyla	-0.0775
-99.9990 vatanımızı	-0.0665
-4.0313 gerekiyordu	-0.1950
-99.9990 kararları	-0.0775
-4.0313 düşünüyorum	-0.1950
-3.8552 düşünüyoruz	-0.4248
-99.9990 oylanmaz	-0.0766
-99.9990 kişisel	-0.0774
-3.7303 ruhu	-0.0775
-2.9344 yılında	-0.1195
-99.9990 gerekiyorsa	-0.0776
-99.9990 tavrın	-0.0771
-4.0313 vize	-0.0775
-4.0313 hocamızın	-0.0776
-99.9990 karışmıştır	-0.0731
-99.9990 oğlunun	-0.0776
-99.9990 gösteren	-0.0776
-99.9990 gönderiliyor	-0.0465
-99.9990 gösterin	-0.0465
-99.9990 anlaşırsanız	-0.0771
-99.9990 meclisimize	-0.0775
-99.9990 komşularımızdan	-0.0776
-99.9990 hoyrattı	-0.0776
-4.0313 rejimine	-0.2258
-99.9990 göstergelerinden	-0.0776
-99.9990 çocuktan	-0.0775
-99.9990 etmemiştir	-0.0465
-99.9990 meclisteki	-0.0776
-99.9990 indirip	-0.0774
-99.9990 ceza	-0.0776
-3.4292 buradan	-0.0624
-3.5542 savaşı	-0.2900
-3.0313 eğer	-0.0804
-99.9990 mahallerine	-0.0775
-99.9990 inanılmaz	-0.0765
-99.9990 muhtarların	-0.0776
-99.9990 yakınlarındaki	-0.0775
-4.0313 nedeni	-0.0772
-99.9990 italyaya	-0.0775
-99.9990 kaşdemire	-0.0775
-99.9990 uygulanabilecek	-0.0774
-99.9990 kadük	-0.0649
-4.0313 kılmaktadır	-0.1950
-4.0313 edilebilir	-0.0645
-4.0313 hususu	-0.0762
-4.0313 dokuzda	-0.0739
-4.0313 sınırından	-0.0774
-99.9990 samsun	-0.0770
-4.0313 hepsinin	-0.0773
-4.0313 rahatlıkla	-0.0776
-99.9990 necip	-0.0776
-99.9990 oğlun	-0.0760
-99.9990 fotoğraf	-0.0773
-99.9990 birimleri	-0.0737
-3.6333 doğrultusunda	-0.1298
-99.9990 ölmesi	-0.0776
-99.9990 davranmak	-0.0775
-4.0313 sunarım	-0.1950
-99.9990 işlemlerinin	-0.0776
-99.9990 tanımaz	-0.0775
-99.9990 onaylanmıştır	-0.0465
-99.9990 devamının	-0.0775
-99.9990 kapatılmadı	-0.0776
-3.7303 kadın	-0.1343
-99.9990 makine	-0.0665
-4.0313 oylayayım	-0.0770
-99.9990 yanlışlara	-0.0775
-3.8552 harekete	-0.0776
-99.9990 tavırdır	-0.0465
-99.9990 düşüyor	-0.0465
-99.9990 uygulamasına	-0.0776
-99.9990 geçirilmesinin	-0.0737
-99.9990 ağızdan	-0.0767
-99.9990 bekliyorum	-0.0465
-3.8552 bekliyoruz	-0.4248
-99.9990 kayganlık	-0.0649
-99.9990 cumhurbaşkanlığının	-0.0772
-99.9990 kararlarla	-0.0774
-3.3323 neden	-0.1509
-99.9990 takvimlendirilmiş	-0.0775
-99.9990 zararını	-0.0769
-3.4872 nedir	-0.2120
-99.9990 şeylerle	-0.0737
-99.9990 geçilmesi	-0.0773
-3.3323 kuvvet	-0.6934
-99.9990 kızları	-0.0776
-99.9990 sınırımızın	-0.0774
-99.9990 sırasıyla	-0.0767
-3.8552 bizden	-0.1688
-99.9990 konuşmak	-0.0756
-99.9990 kaynaklarım	-0.0775
-99.9990 izlemek	-0.0665
-99.9990 getirilerek	-0.0775
-4.0313 akını	-0.0770
-99.9990 siviller	-0.0465
-4.0313 tarihe	-0.0776
-3.6333 tarihi	-0.0774
-99.9990 ortaklık	-0.0776
-99.9990 taşıyabilecek	-0.0465
-99.9990 ettik	-0.0465
-99.9990 ettim	-0.0776
-99.9990 gelince	-0.0737
-99.9990 bestelenen	-0.0775
-4.0313 çıktığı	-0.0756
-99.9990 taraflarına	-0.0776
-99.9990 benzemez	-0.0775
-4.0313 aksine	-0.0771
-4.0313 kararın	-0.0769
-99.9990 yakınlığı	-0.0760
-99.9990 götürülmüş	-0.0665
-3.8552 anayasaya	-0.4557
-99.9990 görevlendirilmiştir	-0.0465
-4.0313 savaşta	-0.2260
-99.9990 zorla	-0.0776
-99.9990 zorlu	-0.0776
-99.9990 toprağı	-0.0775
-99.9990 harekattan	-0.0764
-99.9990 uzlaşı	-0.0665
-99.9990 sorunlarının	-0.0776
-99.9990 bekliyor	-0.0773
-99.9990 kamboçya	-0.0767
-99.9990 gösteriler	-0.0774
-99.9990 olmakla	-0.0773
-4.0313 romanların	-0.0775
-99.9990 kullanılmayacağını	-0.0776
-99.9990 izlenen	-0.0768
-99.9990 olmakta	-0.0665
-99.9990 yönetilmek	-0.0769
-99.9990 proje	-0.0768
-99.9990 uygulanmadığını	-0.0775
-99.9990 maliyetlerinin	-0.0775
-99.9990 rüesa	-0.0775
-99.9990 karasuları	-0.0665
-3.7303 sivil	-0.4309
-99.9990 çatışıyorsanız	-0.0776
-3.5542 yarım	-0.0663
-99.9990 yarın	-0.0776
-3.3781 nitekim	-0.0992
-99.9990 bırakılmasına	-0.0769
-3.7303 istihkam	-0.4310
-99.9990 belediyelere	-0.0775
-4.0313 belediyeleri	-0.0774
-4.0313 mazgirt	-0.0776
-99.9990 sıkıntılarını	-0.0776
-99.9990 öğreneceksiniz	-0.0774
-99.9990 kobani	-0.0775
-99.9990 varabilen	-0.0775
-99.9990 tanıklıkları	-0.0775
-3.8552 parlamentoda	-0.0771
-99.9990 yasakladığımıza	-0.0772
-4.0313 romanlara	-0.0763
-99.9990 söktüler	-0.0760
-99.9990 günlerden	-0.0649
-99.9990 başlatmışlardır	-0.0465
-99.9990 denkleminde	-0.0774
-3.4872 toplantı	-0.3231
-99.9990 haberdar	-0.0776
-99.9990 alınamamıştır	-0.0465
-99.9990 bulunulmuş	-0.0771
-99.9990 görüyordu	-0.0665
-3.8552 partili	-0.0770
-3.5542 parlamentoya	-0.1192
-3.8552 dersimliler	-0.0752
-99.9990 iskanla	-0.0776
-2.6696 partisi	-0.5933
-99.9990 püskürmüş	-0.0774
-3.7303 görüyorum	-0.0447
-3.7303 görüyoruz	-0.2953
-99.9990 limasol	-0.0775
-3.8552 veriliyor	-0.0652
-99.9990 komisyonlarının	-0.0775
-99.9990 vilayetine	-0.0776
-99.9990 desteklemek	-0.0771
-99.9990 ziyarette	-0.0775
-99.9990 yağışı	-0.0773
-4.0313 dağın	-0.0776
-99.9990 mayınları	-0.0776
-99.9990 hemşehrimiz	-0.0760
-2.9899 tarihinde	-0.1296
-4.0313 sürdüren	-0.0751
-4.0313 istedim	-0.0454
-3.6333 ortada	-0.2636
-99.9990 tarihinin	-0.0776
-99.9990 özürlerin	-0.0737
-4.0313 riskli	-0.0646
-99.9990 olmamam	-0.0774
-99.9990 ilintili	-0.0649
-99.9990 raporlarında	-0.0765
-3.4292 görevini	-0.1841
-99.9990 yaşanmasaydı	-0.0465
-2.9706 ortaya	-0.0685
-99.9990 çıkarılan	-0.0766
-3.8552 belediyelerinde	-0.1698
-3.7303 amiri	-0.0762
-99.9990 savaştık	-0.0775
-99.9990 desteklenmekte	-0.0665
-99.9990 yollar	-0.0776
-99.9990 kazalarında	-0.0776
-4.0313 gelmesi	-0.0755
-99.9990 sınırdaki	-0.0775
-3.8552 kamber	-0.0776
-99.9990 mecburiyetini	-0.0776
-99.9990 yönettiğiniz	-0.0773
-99.9990 ettirildi	-0.0764
-99.9990 aktarın	-0.0775
-99.9990 alınamayacağını	-0.0774
-99.9990 aydınlanmasını	-0.0775
-99.9990 basımevi	-0.0768
-99.9990 yükseklere	-0.0776
-99.9990 yatırımlar	-0.0775
-99.9990 arayışını	-0.0776
-4.0313 anlayışının	-0.0649
-99.9990 isimleri	-0.0774
-99.9990 anlayışınız	-0.0689
-99.9990 bilgilendirmek	-0.0756
-99.9990 istediler	-0.0465
-3.4292 artık	-0.0733
-99.9990 oluşturması	-0.0772
-4.0313 tanıklarının	-0.0776
-3.8552 şahıs	-0.0751
-4.0313 emrullah	-0.2259
-4.0313 sürgüne	-0.0775
-99.9990 yetmişlerin	-0.0776
-99.9990 bayrağını	-0.0776
-99.9990 faşist	-0.0770
-3.8552 müdahil	-0.1706
-4.0313 kendiliğinden	-0.0775
-99.9990 görevimizdir	-0.0465
-99.9990 çatışmanın	-0.0775
-99.9990 öğrencilerinin	-0.0776
-99.9990 kurtarılabilir	-0.0465
-99.9990 getirdiniz	-0.0465
-99.9990 okudunuz	-0.0465
-3.8552 acılarını	-0.0776
-99.9990 tedbirleriyle	-0.0776
-99.9990 kısmında	-0.0773
-99.9990 adıyamanın	-0.0774
-3.6333 gelmiş	-0.1292
-3.1019 arasında	-0.0890
-99.9990 misiniz	-0.0465
-2.9173 meclis	-0.1136
-99.9990 bahattin	-0.0775
-99.9990 kimliğiyle	-0.0776
-99.9990 paylaştığımız	-0.0689
-99.9990 zulümleri	-0.0776
-99.9990 köktürk	-0.0772
-99.9990 abd	-0.0665
-99.9990 ada	-0.0774
-4.0313 özgürlüğü	-0.0737
-99.9990 bırakmaktadır	-0.0465
-3.7303 ait	-0.0637
-99.9990 tamiratlar	-0.0775
-99.9990 kurtarabiliriz	-0.0465
-3.3323 akp	-0.1593
-3.4292 ali	-0.0772
-4.0313 alt	-0.2259
-3.8552 doğrusu	-0.0463
-2.6080 ama	-0.0460
-99.9990 görevlerine	-0.0776
-3.8552 ana	-0.1695
-4.0313 ant	-0.0776
-4.0313 belirtmekte	-0.0771
-3.5542 ara	-0.2780
-99.9990 ari	-0.0776
-3.2184 arz	-0.1951
-4.0313 asi	-0.0776
-99.9990 sekizincisini	-0.0776
-99.9990 aya	-0.0774
-4.0313 aza	-0.2260
-99.9990 uyarıyorum	-0.0776
-99.9990 onlardan	-0.0764
-99.9990 garo	-0.0776
-99.9990 özgümüş	-0.0728
-99.9990 açıklamasına	-0.0776
-3.1562 sizin	-0.1027
-3.7303 yapmaya	-0.0772
-99.9990 gaye	-0.0776
-99.9990 sorumluluklarını	-0.0776
-99.9990 eğitilmemiş	-0.0665
-99.9990 yapmadılar	-0.0773
-3.5542 görevler	-0.1703
-99.9990 girmesine	-0.0772
-99.9990 irtibatı	-0.0776
-3.8552 terbiyesizlik	-0.0413
-99.9990 bak	-0.0766
-3.8552 bal	-0.4248
-3.6333 bdp	-0.0769
-99.9990 yasaklamıştır	-0.0465
-2.6333 ben	-0.1969
-4.0313 bey	-0.0770
-3.8552 maksadıyla	-0.0771
-1.9860 bin	-0.8557
-1.5392 bir	-0.1278
-2.6791 biz	-0.1380
-3.7303 öldürüldüğü	-0.1366
-99.9990 modern	-0.0649
-4.0313 boy	-0.0664
-99.9990 talebini	-0.0737
-4.0313 almaktadır	-0.0433
-99.9990 buz	-0.0775
-99.9990 saklanmaları	-0.0665
-99.9990 başlamışlardı	-0.0771
-4.0313 konuşsun	-0.0464
-99.9990 üstün	-0.0776
-3.1862 olması	-0.0969
-99.9990 sekreterinin	-0.0776
-99.9990 konuşsaydı	-0.0465
-3.8552 eş	-0.0776
-99.9990 pasaportu	-0.0769
-99.9990 geç	-0.0737
-99.9990 roboskide	-0.0746
-99.9990 yurttaşlarına	-0.0775
-3.3781 efendim	-0.2259
-4.0313 can	-0.0775
-99.9990 kaldığı	-0.0776
-99.9990 uygulanıp	-0.0776
-99.9990 zabıtlardan	-0.0775
-99.9990 ulaşmış	-0.0775
-4.0313 susuzluk	-0.2149
-3.3781 chp	-0.0706
-99.9990 itibarını	-0.0775
-99.9990 musunuz	-0.0465
-99.9990 duyarak	-0.0776
-99.9990 dünyasındaki	-0.0776
-99.9990 bulunmakta	-0.0665
-99.9990 halkımız	-0.0768
-99.9990 görüntü	-0.0774
-99.9990 değindiğimiz	-0.0775
-3.4292 aldığı	-0.0611
-3.8552 ondokuzuncu	-0.0773
-99.9990 güneydoğusunda	-0.0740
-99.9990 çekilip	-0.0772
-3.8552 neler	-0.0464
-99.9990 dayandığı	-0.0649
-99.9990 ıraka	-0.0775
-99.9990 metinden	-0.0776
-99.9990 vaziyet	-0.0776
-4.0313 gününü	-0.0775
-3.4292 beşinci	-0.1078
-4.0313 birliğinin	-0.0771
-99.9990 çözümü	-0.0776
-99.9990 seçime	-0.0760
-99.9990 ramazanışerifinizi	-0.0737
-99.9990 karataşa	-0.0689
-99.9990 idamlara	-0.0768
-99.9990 münasebetle	-0.0776
-4.0313 emrinde	-0.0746
-3.4872 mezhep	-0.1150
-99.9990 sürdürülmesi	-0.0649
-3.1862 arkadaşlar	-0.0941
-99.9990 dilenmesi	-0.0665
-99.9990 yasaklı	-0.0775
-3.7303 bizler	-0.0765
-4.0313 dar	-0.0776
-99.9990 değişmeyen	-0.0764
-99.9990 ezilmektedir	-0.0465
-99.9990 kürsüsünden	-0.0776
-4.0313 özgündüz	-0.0461
-99.9990 der	-0.0776
-3.8552 arşivlere	-0.0664
-99.9990 arşivleri	-0.0776
-3.5542 dil	-0.2155
-4.0313 din	-0.0664
-99.9990 kullanıyor	-0.0776
-99.9990 dilenecekse	-0.0665
-4.0313 milletimize	-0.0774
-99.9990 milletimizi	-0.0776
-99.9990 kararından	-0.0731
-99.9990 belediyesinde	-0.0776
-99.9990 araştırılmasına	-0.0665
-4.0313 bölgelerde	-0.2221
-99.9990 atamalarının	-0.0776
-3.8552 düzenlemelerin	-0.4555
-99.9990 subayımız	-0.0776
-99.9990 munzurun	-0.0776
-99.9990 getirilenlerin	-0.0776
-99.9990 düzenlemelerle	-0.0774
-99.9990 belediyesinin	-0.0772
-99.9990 türkmenin	-0.0737
-99.9990 dsi	-0.0775
-99.9990 bölgelerin	-0.0775
-99.9990 etmemize	-0.0775
-99.9990 kayıtlarla	-0.0767
-99.9990 günümüzdeki	-0.0776
-99.9990 açlıkla	-0.0776
-99.9990 sunabilecek	-0.0776
-4.0313 gruba	-0.2260
-2.9521 grubu	-0.6390
-99.9990 alacak	-0.0775
-99.9990 sabaha	-0.0764
-99.9990 istanbula	-0.0764
-3.8552 zira	-0.0681
-99.9990 vuku	-0.0776
-3.8552 kürsüde	-0.0765
-99.9990 önceliğimiz	-0.0775
-99.9990 pratiğe	-0.0776
-99.9990 pratiği	-0.0776
-99.9990 bağlantılı	-0.0765
-99.9990 konuşmaları	-0.0776
-4.0313 durdurma	-0.0765
-99.9990 olumludur	-0.0465
-99.9990 kürsüye	-0.0774
-99.9990 günleriydi	-0.0465
-99.9990 olacaktık	-0.0465
-3.5542 olacaktır	-0.2465
-3.4872 ele	-0.0773
-99.9990 eli	-0.0775
-99.9990 komşularınıza	-0.0771
-99.9990 şehadet	-0.0776
-99.9990 iyiliğine	-0.0774
-99.9990 evi	-0.0775
-3.4292 başkanı	-0.1459
-99.9990 halepteki	-0.0689
-4.0313 müdürlerinin	-0.0776
-99.9990 gene	-0.0771
-3.4872 geri	-0.0773
-99.9990 tamamında	-0.0772
-99.9990 reaksiyonlarını	-0.0776
-99.9990 dışına	-0.0776
-99.9990 gezi	-0.0776
-99.9990 sayfalık	-0.0776
-99.9990 oturumunuz	-0.0767
-99.9990 paralel	-0.0756
-99.9990 istekli	-0.0771
-99.9990 insanlarımızı	-0.0776
-99.9990 çağlayangilin	-0.0776
-99.9990 cumhurbaşkanımız	-0.0649
-99.9990 yıllara	-0.0776
-99.9990 bağlanabilir	-0.0465
-4.0313 yakınlarına	-0.0768
-99.9990 göremezsiniz	-0.0465
-99.9990 barajları	-0.0776
-99.9990 komşularla	-0.0774
-99.9990 kanlıbaş	-0.0773
-99.9990 oluşturmayı	-0.0776
-3.7303 asgari	-0.3262
-99.9990 çıbandır	-0.0465
-3.4292 başkanlık	-0.2264
-99.9990 olmazlarımız	-0.0775
-99.9990 gününde	-0.0689
-3.8552 başbakan	-0.0774
-99.9990 girişimlere	-0.0776
-99.9990 burası	-0.0773
-99.9990 dikiyorlar	-0.0689
-99.9990 konumlarını	-0.0775
-99.9990 olabilmektedir	-0.0465
-3.3781 üçüncü	-0.0740
-99.9990 majör	-0.0776
-3.5542 oradan	-0.1052
-99.9990 veyahut	-0.0740
-99.9990 dışarıdaki	-0.0776
-99.9990 planından	-0.0774
-3.8552 halkımıza	-0.0771
-3.7303 dağının	-0.0774
-2.8852 iç	-0.1637
-99.9990 hassasiyetimizi	-0.0769
-2.9899 iş	-0.4538
-99.9990 okunması	-0.0665
-99.9990 milletvekillerimize	-0.0776
-99.9990 milletvekillerimizi	-0.0776
-99.9990 görüşünü	-0.0775
-99.9990 ölü	-0.0776
-99.9990 sağcısıyla	-0.0776
-4.0313 tabiatıyla	-0.0752
-3.3323 ağustos	-0.8104
-4.0313 kuvveti	-0.0776
-3.7303 aygün	-0.1087
-99.9990 görevlilerinin	-0.0737
-3.8552 gaz	-0.0775
-99.9990 etmektedirler	-0.0465
-4.0313 çıkarıldığını	-0.0759
-3.7303 korkunç	-0.1328
-99.9990 getirilmesi	-0.0775
-3.8552 tehdidinin	-0.0770
-4.0313 ermenilerin	-0.0775
-99.9990 hastalıklarında	-0.0775
-4.0313 oluşturmaya	-0.0775
-99.9990 getirilmeye	-0.0775
-99.9990 yürütmeyi	-0.0776
-99.9990 hozat	-0.0776
-99.9990 hizmetçi	-0.0756
-99.9990 törenlerinin	-0.0773
-99.9990 bilemiyorum	-0.0765
-99.9990 minnetlerini	-0.0776
-3.8552 ıslahı	-0.1702
-99.9990 propagandaya	-0.0775
-99.9990 donatı	-0.0776
-2.6791 dört	-0.2029
-3.8552 geliyor	-0.1705
-99.9990 taksitle	-0.0775
-99.9990 yapımı	-0.0665
-99.9990 parise	-0.0764
-3.8552 konuşmacı	-0.0772
-3.1562 ettiği	-0.1715
-99.9990 istemem	-0.0776
-99.9990 çabalarında	-0.0776
-99.9990 kaydettiği	-0.0776
-99.9990 sağlığı	-0.0665
-99.9990 değişmem	-0.0756
-99.9990 değişmez	-0.0768
-99.9990 makamına	-0.0776
-3.6333 karşıya	-0.0765
-99.9990 pydnin	-0.0776
-3.6333 hak	-0.2634
-99.9990 hal	-0.0768
-99.9990 vurgular	-0.0776
-99.9990 istiyorsak	-0.0765
-4.0313 hdp	-0.0756
-3.0536 hem	-0.3068
-3.4872 hep	-0.1012
-2.5999 her	-0.2192
-99.9990 hes	-0.0776
-99.9990 izleyen	-0.0772
-99.9990 anlattıklarınızın	-0.0776
-99.9990 türkçe	-0.0776
-4.0313 rabia	-0.0776
-3.8552 koridoru	-0.1704
-3.8552 vermiştir	-0.4248
-99.9990 getirilmiş	-0.0775
-99.9990 bahsetmek	-0.0773
-99.9990 zehirli	-0.0775
-99.9990 yaklaşmasına	-0.0775
-4.0313 olmayı	-0.2260
-3.1282 kişi	-0.0696
-3.8552 bulunması	-0.0771
-3.8552 yoluna	-0.0764
-99.9990 uzatılan	-0.0776
-3.7303 ölçekte	-0.1324
-99.9990 çıkmıyor	-0.0649
-99.9990 oluyordu	-0.0465
-99.9990 istenen	-0.0766
-99.9990 politikaları	-0.0776
-99.9990 önü	-0.0776
-99.9990 çelişkili	-0.0649
-99.9990 düşük	-0.0776
-99.9990 gitmediğine	-0.0771
-4.0313 oluyoruz	-0.1950
-99.9990 yaralarını	-0.0776
-99.9990 kalasla	-0.0776
-3.7303 sağlanmasına	-0.0767
-3.8552 otoritesi	-0.0689
-99.9990 ingilizlerin	-0.0776
-99.9990 basarak	-0.0776
-3.0536 yapılan	-0.0761
-99.9990 gürbulak	-0.0775
-99.9990 inceleyin	-0.0465
-99.9990 inceleyip	-0.0649
-99.9990 idi	-0.0765
-99.9990 dinamiklere	-0.0775
-2.1650 iki	-0.5738
-99.9990 ila	-0.0775
-2.9899 ile	-0.0843
-3.1019 ilk	-0.2108
-99.9990 tehlikeli	-0.0775
-2.6696 gibi	-0.0782
-99.9990 bulgaristanda	-0.0776
-99.9990 ortamının	-0.0774
-3.0536 ise	-0.0705
-99.9990 ölen	-0.0776
-4.0313 cerablus	-0.0740
-4.0313 artacak	-0.1950
-99.9990 milletvekilim	-0.0776
-3.4292 iyi	-0.1731
-99.9990 tehlikeye	-0.0776
-99.9990 karakoluna	-0.0776
-99.9990 kutladık	-0.0465
-99.9990 kaynaklarınız	-0.0775
-99.9990 ilişkili	-0.0775
-99.9990 gire	-0.0776
-99.9990 ölse	-0.0764
-99.9990 mecburiyetiniz	-0.0771
-99.9990 işçilere	-0.0665
-4.0313 işçileri	-0.0756
-99.9990 nüfus	-0.0776
-99.9990 kararlılığındadır	-0.0465
-99.9990 düşmanlarımız	-0.0774
-99.9990 tarihiyle	-0.0775
-4.0313 ıslahat	-0.0774
-99.9990 kazandırarak	-0.0775
-99.9990 yapılanmasına	-0.0775
-99.9990 dolasıyla	-0.0776
-99.9990 kamuoyu	-0.0769
-99.9990 bangladeş	-0.0649
-99.9990 tesisidir	-0.0465
-99.9990 koşarım	-0.0465
-99.9990 protesto	-0.0776
-99.9990 ofisi	-0.0770
-4.0313 bakanını	-0.0685
-99.9990 engelleseydi	-0.0775
-99.9990 davetiye	-0.0728
-99.9990 kilisin	-0.0776
-99.9990 tezkerelere	-0.0773
-99.9990 tezkereleri	-0.0689
-99.9990 çözümlenmesine	-0.0766
-99.9990 bilgisi	-0.0776
-4.0313 isyanlar	-0.0775
-99.9990 mü	-0.0465
-3.8552 rahatsız	-0.1705
-3.2184 mı	-0.5892
-99.9990 destekleyen	-0.0776
-99.9990 peyzaj	-0.0776
-3.6333 kaç	-0.1296
-4.0313 acımasız	-0.0645
-99.9990 osmanlılarla	-0.0776
-99.9990 bulmuyorum	-0.0465
-99.9990 tarzı	-0.0775
-99.9990 hududa	-0.0776
-99.9990 yöneticilerin	-0.0689
-3.8552 divanının	-0.0720
-99.9990 yöneticilerle	-0.0772
-99.9990 bağların	-0.0665
-3.7303 başlatıyorum	-0.2921
-99.9990 bölgelere	-0.0771
-4.0313 bölgeleri	-0.0776
-99.9990 tanımlanan	-0.0776
-3.2909 olmayan	-0.0871
-99.9990 fırsatlar	-0.0764
-99.9990 korursak	-0.0776
-99.9990 masaya	-0.0776
-99.9990 sürdürüleceğinin	-0.0776
-99.9990 programımız	-0.0764
-3.8552 kan	-0.1707
-99.9990 lüzumlu	-0.0774
-99.9990 köprüsünü	-0.0775
-4.0313 bulunmaya	-0.2257
-3.1019 kez	-0.5776
-4.0313 yenilenmesi	-0.0664
-4.0313 olimpik	-0.2260
-99.9990 konuşmadan	-0.0776
-99.9990 kavramında	-0.0776
-99.9990 odaklarından	-0.0776
-3.2531 kim	-0.1009
-99.9990 kin	-0.0665
-99.9990 öneriler	-0.0776
-4.0313 nihai	-0.0645
-2.7641 önce	-0.0871
-3.1019 önem	-0.2834
-4.0313 alın	-0.0773
-3.8552 alıp	-0.0649
-99.9990 açıktır	-0.0465
-99.9990 politikalarla	-0.0776
-3.7303 bakımı	-0.0767
-99.9990 iletti	-0.0465
-4.0313 çizgimizdir	-0.1950
-99.9990 hükümleri	-0.0774
-99.9990 arkadan	-0.0776
-99.9990 insanlık	-0.0776
-3.4872 katkısında	-0.2526
-99.9990 geldiniz	-0.0771
-3.7303 onaltı	-0.0768
-3.6333 başkanlığı	-0.1159
-99.9990 sürdürmekte	-0.0760
-4.0313 laf	-0.0776
-99.9990 heyeti	-0.0775
-99.9990 yönlü	-0.0774
-99.9990 etkinlikler	-0.0776
-99.9990 almanız	-0.0773
-99.9990 müze	-0.0775
-99.9990 hissetmektedir	-0.0465
-99.9990 çağ	-0.0775
-99.9990 bulunacaksa	-0.0776
-99.9990 piyasa	-0.0772
-99.9990 platformda	-0.0776
-99.9990 bilinçli	-0.0771
-99.9990 menfaatleri	-0.0773
-99.9990 edilecek	-0.0776
-99.9990 basmacıyanın	-0.0776
-99.9990 isterdi	-0.0765
-4.0313 havutça	-0.0716
-3.8552 sorunları	-0.0771
-99.9990 getirilmesiydi	-0.0465
-3.7303 çocuklarının	-0.0769
-3.6333 isterim	-0.0936
-99.9990 kalekol	-0.0775
-99.9990 fırkateynle	-0.0737
-4.0313 kaynaklı	-0.0765
-99.9990 aldığım	-0.0775
-99.9990 yılmazdan	-0.0776
-99.9990 uzatılmasını	-0.0773
-99.9990 mal	-0.0775
-99.9990 davetler	-0.0774
-99.9990 olumluluk	-0.0765
-99.9990 hemşehrilerimize	-0.0758
-99.9990 mhp	-0.0775
-4.0313 mit	-0.0776
-99.9990 fazıl	-0.0776
-99.9990 vekiliniz	-0.0764
-99.9990 konutlarında	-0.0773
-99.9990 tarzda	-0.0775
-99.9990 elitlerinden	-0.0760
-4.0313 kamp	-0.0776
-3.6333 kamu	-0.0776
-99.9990 barikatı	-0.0756
-99.9990 altyapıların	-0.0775
-99.9990 önerinin	-0.0770
-99.9990 gösterdiği	-0.0775
-3.4872 kara	-0.1149
-99.9990 kati	-0.0776
-99.9990 düne	-0.0772
-4.0313 kaya	-0.0773
-99.9990 kaza	-0.0775
-3.8552 ordusuna	-0.0730
-99.9990 koyamadık	-0.0465
-99.9990 bildiğimi	-0.0772
-99.9990 kamusal	-0.0776
-99.9990 geçmişe	-0.0776
-4.0313 geçmişi	-0.0775
-3.2184 özellikle	-0.0657
-99.9990 terakki	-0.0776
-99.9990 etrafta	-0.0776
-99.9990 başlarken	-0.0764
-99.9990 kliniğe	-0.0776
-99.9990 rahat	-0.0776
-99.9990 seçilmemiş	-0.0776
-3.8552 net	-0.1574
-99.9990 willy	-0.0776
-99.9990 gerçekleştiği	-0.0776
-99.9990 yardımlarla	-0.0776
-4.0313 acırım	-0.0664
-99.9990 perçinlenmesine	-0.0737
-99.9990 yükseltildiği	-0.0774
-4.0313 diplomatik	-0.0775
-99.9990 emnüeman	-0.0770
-99.9990 bulunmayı	-0.0769
-4.0313 tavrı	-0.0775
-4.0313 birliğiyle	-0.0736
-3.7303 koyduğu	-0.0770
-99.9990 konuştuğu	-0.0665
-4.0313 çaba	-0.0771
-4.0313 darağacına	-0.0776
-99.9990 üzülmeyin	-0.0776
-99.9990 düşmüşlerdir	-0.0465
-99.9990 sudan	-0.0776
-99.9990 katırlara	-0.0776
-99.9990 çoğu	-0.0768
-4.0313 kredi	-0.2149
-99.9990 duymuyoruz	-0.0465
-99.9990 edilmesinde	-0.0775
-99.9990 sırlardır	-0.0465
-99.9990 akmayacaktı	-0.0775
-3.8552 saygı	-0.0775
-99.9990 edilmesinin	-0.0775
-4.0313 köprüsünün	-0.0776
-3.5542 ona	-0.1073
-3.4292 onu	-0.1043
-99.9990 kaçıyorlar	-0.0774
-99.9990 kurtulmanın	-0.0770
-99.9990 eleman	-0.0769
-4.0313 tehdidi	-0.0664
-99.9990 ota	-0.0776
-99.9990 belediyesiyle	-0.0776
-99.9990 facianın	-0.0775
-99.9990 oyu	-0.0776
-99.9990 bahsettik	-0.0776
-99.9990 göründüğü	-0.0776
-99.9990 gerginliklerin	-0.0770
-3.7303 alanda	-0.0772
-99.9990 temelinde	-0.0774
-99.9990 gerisinde	-0.0760
-99.9990 açtığında	-0.0765
-4.0313 arşivine	-0.0776
-4.0313 sayede	-0.0766
-99.9990 programını	-0.0740
-99.9990 güçleri	-0.0776
-99.9990 koymuştur	-0.0465
-99.9990 yön	-0.0776
-99.9990 afrikanın	-0.0776
-99.9990 ailelerinin	-0.0775
-99.9990 pah	-0.0776
-99.9990 yük	-0.0775
-2.1392 yüz	-0.6876
-3.7303 pek	-0.4291
-99.9990 pes	-0.0775
-99.9990 savunanların	-0.0756
-99.9990 ilimiz	-0.0776
-3.6333 gelmektedir	-0.4560
-4.0313 kapısından	-0.0773
-99.9990 varlığına	-0.0775
-99.9990 yüzünü	-0.0737
-4.0313 milletvekillerine	-0.0773
-99.9990 sizinki	-0.0737
-4.0313 pyd	-0.0771
-4.0313 sizinle	-0.0776
-99.9990 günlük	-0.0776
-99.9990 altyapılarının	-0.0776
-99.9990 görüşmelerin	-0.0772
-99.9990 çekiyor	-0.0465
-99.9990 neyle	-0.0774
-2.7413 lübnan	-0.2422
-99.9990 konuşmalı	-0.0465
-99.9990 aydında	-0.0689
-99.9990 araştırılabilir	-0.0775
-99.9990 neyse	-0.0767
-99.9990 kayıtlı	-0.0465
-99.9990 koymak	-0.0774
-4.0313 gerekçe	-0.0775
-99.9990 tercih	-0.0775
-3.7303 itibarıyla	-0.1448
-99.9990 sekizinci	-0.0665
-2.6080 yıl	-0.2245
-99.9990 yağıştır	-0.0465
-99.9990 heyetinin	-0.0775
-99.9990 ilinde	-0.0737
-99.9990 rakam	-0.0774
-4.0313 suriyelinin	-0.2259
-3.7303 tokiden	-0.0771
-99.9990 yapmışlardır	-0.0465
-99.9990 muhtırası	-0.0665
-3.6333 yılı	-0.1308
-99.9990 karadağda	-0.0776
-3.7303 tarafı	-0.0634
-4.0313 etkilendiğini	-0.0663
-99.9990 öter	-0.0776
-99.9990 belgede	-0.0769
-4.0313 kere	-0.0758
-99.9990 aydınlığı	-0.0776
-3.7303 doğuda	-0.0646
-99.9990 ateşkesin	-0.0776
-3.8552 osmanlı	-0.0775
-99.9990 keza	-0.0774
-4.0313 belgesi	-0.0772
-99.9990 önermiş	-0.0776
-3.6333 çevresinde	-0.0643
-99.9990 belgeyi	-0.0776
-99.9990 doğuya	-0.0776
-99.9990 eşkıyalar	-0.0756
-99.9990 aktardık	-0.0465
-99.9990 yansıtmayacakları	-0.0775
-4.0313 sebebiyle	-0.0774
-99.9990 zamana	-0.0776
-99.9990 yükselen	-0.0774
-3.8552 bizzat	-0.0773
-99.9990 delillerini	-0.0775
-3.8552 gönderilen	-0.0770
-99.9990 şebekesi	-0.0665
-99.9990 çıkmak	-0.0776
-3.7303 malzeme	-0.0753
-99.9990 yansıtan	-0.0765
-99.9990 konmuş	-0.0776
-99.9990 gönderilse	-0.0773
-3.5542 rol	-0.1686
-99.9990 kalitesiz	-0.0776
-99.9990 ruh	-0.0776
-3.4292 rus	-0.1101
-3.1562 grup	-0.4709
-3.4872 çıkan	-0.1013
-3.8552 çıkar	-0.1397
-99.9990 bırakmıştır	-0.0465
-99.9990 ağızları	-0.0689
-99.9990 durdurulmuştur	-0.0465
-99.9990 iştirakimizin	-0.0776
-99.9990 çıkma	-0.0771
-99.9990 evladıfatihanın	-0.0776
-99.9990 hikayecileri	-0.0770
-99.9990 orası	-0.0775
-99.9990 unutmadı	-0.0665
-99.9990 komşumuzun	-0.0772
-99.9990 raman	-0.0776
-3.5542 sel	-0.3513
-3.6333 sen	-0.0758
-4.0313 ses	-0.0776
-99.9990 sgk	-0.0775
-99.9990 sim	-0.0775
-99.9990 sin	-0.0776
-2.9706 siz	-0.1428
-3.4872 dışı	-0.1999
-99.9990 idaresinin	-0.0776
-99.9990 ramis	-0.0776
-2.8138 son	-0.2050
-99.9990 spi	-0.0764
-99.9990 sur	-0.0776
-99.9990 ettikçe	-0.0772
-99.9990 fevkalade	-0.0773
-99.9990 görüntüler	-0.0771
-99.9990 pasaportular	-0.0776
-99.9990 gemilerimiz	-0.0768
-4.0313 alarak	-0.0771
-99.9990 doldurularak	-0.0770
-3.7303 isteyen	-0.0762
-99.9990 balukene	-0.0737
-99.9990 bedellerine	-0.0776
-4.0313 almıştır	-0.1950
-4.0313 yılda	-0.0752
-99.9990 sezonuna	-0.0776
-99.9990 tarihçisiniz	-0.0773
-4.0313 komisyonuna	-0.0775
-99.9990 stratejik	-0.0649
-3.2184 tam	-0.1471
-99.9990 başkenti	-0.0776
-4.0313 ocakları	-0.0665
-99.9990 tcg	-0.0776
-99.9990 beklemesin	-0.0465
-2.8699 tek	-0.1910
-99.9990 durumdalar	-0.0465
-4.0313 kapatılmıştır	-0.0346
-99.9990 kaymakamı	-0.0768
-99.9990 özelliğini	-0.0775
-99.9990 taziye	-0.0776
-99.9990 tehlikeleri	-0.0774
-99.9990 giderlerinin	-0.0728
-99.9990 gemilerinin	-0.0775
-99.9990 yakılmıştır	-0.0465
-99.9990 açıklanabilir	-0.0465
